digraph Tree {
node [shape=box, fontname="helvetica"] ;
edge [fontname="helvetica"] ;
0 [label="X[23] <= 0.212\ngini = 0.5\nsamples = 40228\nvalue = [20326, 19902]\nclass = y[0]"] ;
1 [label="X[18] <= -0.625\ngini = 0.205\nsamples = 21224\nvalue = [18764, 2460]\nclass = y[0]"] ;
0 -> 1 [labeldistance=2.5, labelangle=45, headlabel="True"] ;
2 [label="X[23] <= -1.101\ngini = 0.322\nsamples = 2605\nvalue = [526, 2079]\nclass = y[1]"] ;
1 -> 2 ;
3 [label="X[18] <= -1.427\ngini = 0.189\nsamples = 492\nvalue = [440, 52]\nclass = y[0]"] ;
2 -> 3 ;
4 [label="X[5] <= 0.5\ngini = 0.402\nsamples = 43\nvalue = [12, 31]\nclass = y[1]"] ;
3 -> 4 ;
5 [label="X[14] <= 0.5\ngini = 0.355\nsamples = 13\nvalue = [10, 3]\nclass = y[0]"] ;
4 -> 5 ;
6 [label="X[0] <= -2.064\ngini = 0.18\nsamples = 10\nvalue = [9, 1]\nclass = y[0]"] ;
5 -> 6 ;
7 [label="X[2] <= 0.5\ngini = 0.444\nsamples = 3\nvalue = [2, 1]\nclass = y[0]"] ;
6 -> 7 ;
8 [label="gini = 0.0\nsamples = 1\nvalue = [1, 0]\nclass = y[0]"] ;
7 -> 8 ;
9 [label="X[21] <= -0.766\ngini = 0.5\nsamples = 2\nvalue = [1, 1]\nclass = y[0]"] ;
7 -> 9 ;
10 [label="gini = 0.0\nsamples = 1\nvalue = [0, 1]\nclass = y[1]"] ;
9 -> 10 ;
11 [label="gini = 0.0\nsamples = 1\nvalue = [1, 0]\nclass = y[0]"] ;
9 -> 11 ;
12 [label="gini = 0.0\nsamples = 7\nvalue = [7, 0]\nclass = y[0]"] ;
6 -> 12 ;
13 [label="X[0] <= -2.057\ngini = 0.444\nsamples = 3\nvalue = [1, 2]\nclass = y[1]"] ;
5 -> 13 ;
14 [label="gini = 0.0\nsamples = 1\nvalue = [1, 0]\nclass = y[0]"] ;
13 -> 14 ;
15 [label="gini = 0.0\nsamples = 2\nvalue = [0, 2]\nclass = y[1]"] ;
13 -> 15 ;
16 [label="X[0] <= -2.124\ngini = 0.124\nsamples = 30\nvalue = [2, 28]\nclass = y[1]"] ;
4 -> 16 ;
17 [label="X[12] <= 0.5\ngini = 0.5\nsamples = 2\nvalue = [1, 1]\nclass = y[0]"] ;
16 -> 17 ;
18 [label="gini = 0.0\nsamples = 1\nvalue = [0, 1]\nclass = y[1]"] ;
17 -> 18 ;
19 [label="gini = 0.0\nsamples = 1\nvalue = [1, 0]\nclass = y[0]"] ;
17 -> 19 ;
20 [label="X[0] <= -1.422\ngini = 0.069\nsamples = 28\nvalue = [1, 27]\nclass = y[1]"] ;
16 -> 20 ;
21 [label="gini = 0.0\nsamples = 26\nvalue = [0, 26]\nclass = y[1]"] ;
20 -> 21 ;
22 [label="X[26] <= -0.772\ngini = 0.5\nsamples = 2\nvalue = [1, 1]\nclass = y[0]"] ;
20 -> 22 ;
23 [label="gini = 0.0\nsamples = 1\nvalue = [1, 0]\nclass = y[0]"] ;
22 -> 23 ;
24 [label="gini = 0.0\nsamples = 1\nvalue = [0, 1]\nclass = y[1]"] ;
22 -> 24 ;
25 [label="X[26] <= -0.772\ngini = 0.089\nsamples = 449\nvalue = [428, 21]\nclass = y[0]"] ;
3 -> 25 ;
26 [label="X[27] <= 0.587\ngini = 0.021\nsamples = 378\nvalue = [374, 4]\nclass = y[0]"] ;
25 -> 26 ;
27 [label="X[18] <= -1.16\ngini = 0.011\nsamples = 364\nvalue = [362, 2]\nclass = y[0]"] ;
26 -> 27 ;
28 [label="X[0] <= -1.315\ngini = 0.073\nsamples = 53\nvalue = [51, 2]\nclass = y[0]"] ;
27 -> 28 ;
29 [label="X[23] <= -1.363\ngini = 0.038\nsamples = 52\nvalue = [51, 1]\nclass = y[0]"] ;
28 -> 29 ;
30 [label="gini = 0.0\nsamples = 43\nvalue = [43, 0]\nclass = y[0]"] ;
29 -> 30 ;
31 [label="X[1] <= 0.5\ngini = 0.198\nsamples = 9\nvalue = [8, 1]\nclass = y[0]"] ;
29 -> 31 ;
32 [label="X[13] <= 0.5\ngini = 0.444\nsamples = 3\nvalue = [2, 1]\nclass = y[0]"] ;
31 -> 32 ;
33 [label="X[0] <= -2.013\ngini = 0.5\nsamples = 2\nvalue = [1, 1]\nclass = y[0]"] ;
32 -> 33 ;
34 [label="gini = 0.0\nsamples = 1\nvalue = [1, 0]\nclass = y[0]"] ;
33 -> 34 ;
35 [label="gini = 0.0\nsamples = 1\nvalue = [0, 1]\nclass = y[1]"] ;
33 -> 35 ;
36 [label="gini = 0.0\nsamples = 1\nvalue = [1, 0]\nclass = y[0]"] ;
32 -> 36 ;
37 [label="gini = 0.0\nsamples = 6\nvalue = [6, 0]\nclass = y[0]"] ;
31 -> 37 ;
38 [label="gini = 0.0\nsamples = 1\nvalue = [0, 1]\nclass = y[1]"] ;
28 -> 38 ;
39 [label="gini = 0.0\nsamples = 311\nvalue = [311, 0]\nclass = y[0]"] ;
27 -> 39 ;
40 [label="X[13] <= 0.5\ngini = 0.245\nsamples = 14\nvalue = [12, 2]\nclass = y[0]"] ;
26 -> 40 ;
41 [label="gini = 0.0\nsamples = 1\nvalue = [0, 1]\nclass = y[1]"] ;
40 -> 41 ;
42 [label="X[0] <= -1.29\ngini = 0.142\nsamples = 13\nvalue = [12, 1]\nclass = y[0]"] ;
40 -> 42 ;
43 [label="gini = 0.0\nsamples = 10\nvalue = [10, 0]\nclass = y[0]"] ;
42 -> 43 ;
44 [label="X[2] <= 0.5\ngini = 0.444\nsamples = 3\nvalue = [2, 1]\nclass = y[0]"] ;
42 -> 44 ;
45 [label="gini = 0.0\nsamples = 2\nvalue = [2, 0]\nclass = y[0]"] ;
44 -> 45 ;
46 [label="gini = 0.0\nsamples = 1\nvalue = [0, 1]\nclass = y[1]"] ;
44 -> 46 ;
47 [label="X[18] <= -1.16\ngini = 0.364\nsamples = 71\nvalue = [54, 17]\nclass = y[0]"] ;
25 -> 47 ;
48 [label="X[23] <= -1.363\ngini = 0.465\nsamples = 19\nvalue = [7, 12]\nclass = y[1]"] ;
47 -> 48 ;
49 [label="X[21] <= -0.766\ngini = 0.278\nsamples = 6\nvalue = [5, 1]\nclass = y[0]"] ;
48 -> 49 ;
50 [label="gini = 0.0\nsamples = 5\nvalue = [5, 0]\nclass = y[0]"] ;
49 -> 50 ;
51 [label="gini = 0.0\nsamples = 1\nvalue = [0, 1]\nclass = y[1]"] ;
49 -> 51 ;
52 [label="X[0] <= -1.469\ngini = 0.26\nsamples = 13\nvalue = [2, 11]\nclass = y[1]"] ;
48 -> 52 ;
53 [label="gini = 0.0\nsamples = 8\nvalue = [0, 8]\nclass = y[1]"] ;
52 -> 53 ;
54 [label="X[5] <= 0.5\ngini = 0.48\nsamples = 5\nvalue = [2, 3]\nclass = y[1]"] ;
52 -> 54 ;
55 [label="gini = 0.0\nsamples = 2\nvalue = [0, 2]\nclass = y[1]"] ;
54 -> 55 ;
56 [label="X[21] <= -0.766\ngini = 0.444\nsamples = 3\nvalue = [2, 1]\nclass = y[0]"] ;
54 -> 56 ;
57 [label="gini = 0.0\nsamples = 1\nvalue = [0, 1]\nclass = y[1]"] ;
56 -> 57 ;
58 [label="gini = 0.0\nsamples = 2\nvalue = [2, 0]\nclass = y[0]"] ;
56 -> 58 ;
59 [label="X[2] <= 0.5\ngini = 0.174\nsamples = 52\nvalue = [47, 5]\nclass = y[0]"] ;
47 -> 59 ;
60 [label="gini = 0.0\nsamples = 32\nvalue = [32, 0]\nclass = y[0]"] ;
59 -> 60 ;
61 [label="X[0] <= -1.636\ngini = 0.375\nsamples = 20\nvalue = [15, 5]\nclass = y[0]"] ;
59 -> 61 ;
62 [label="gini = 0.0\nsamples = 8\nvalue = [8, 0]\nclass = y[0]"] ;
61 -> 62 ;
63 [label="X[23] <= -1.363\ngini = 0.486\nsamples = 12\nvalue = [7, 5]\nclass = y[0]"] ;
61 -> 63 ;
64 [label="X[21] <= -0.766\ngini = 0.219\nsamples = 8\nvalue = [7, 1]\nclass = y[0]"] ;
63 -> 64 ;
65 [label="X[0] <= -1.403\ngini = 0.5\nsamples = 2\nvalue = [1, 1]\nclass = y[0]"] ;
64 -> 65 ;
66 [label="gini = 0.0\nsamples = 1\nvalue = [1, 0]\nclass = y[0]"] ;
65 -> 66 ;
67 [label="gini = 0.0\nsamples = 1\nvalue = [0, 1]\nclass = y[1]"] ;
65 -> 67 ;
68 [label="gini = 0.0\nsamples = 6\nvalue = [6, 0]\nclass = y[0]"] ;
64 -> 68 ;
69 [label="gini = 0.0\nsamples = 4\nvalue = [0, 4]\nclass = y[1]"] ;
63 -> 69 ;
70 [label="X[18] <= -0.892\ngini = 0.078\nsamples = 2113\nvalue = [86, 2027]\nclass = y[1]"] ;
2 -> 70 ;
71 [label="X[23] <= -0.838\ngini = 0.026\nsamples = 1819\nvalue = [24, 1795]\nclass = y[1]"] ;
70 -> 71 ;
72 [label="X[18] <= -1.16\ngini = 0.152\nsamples = 157\nvalue = [13, 144]\nclass = y[1]"] ;
71 -> 72 ;
73 [label="X[0] <= -0.679\ngini = 0.057\nsamples = 136\nvalue = [4, 132]\nclass = y[1]"] ;
72 -> 73 ;
74 [label="X[16] <= 0.5\ngini = 0.043\nsamples = 135\nvalue = [3, 132]\nclass = y[1]"] ;
73 -> 74 ;
75 [label="X[0] <= -1.297\ngini = 0.016\nsamples = 128\nvalue = [1, 127]\nclass = y[1]"] ;
74 -> 75 ;
76 [label="gini = 0.0\nsamples = 115\nvalue = [0, 115]\nclass = y[1]"] ;
75 -> 76 ;
77 [label="X[0] <= -1.273\ngini = 0.142\nsamples = 13\nvalue = [1, 12]\nclass = y[1]"] ;
75 -> 77 ;
78 [label="gini = 0.0\nsamples = 1\nvalue = [1, 0]\nclass = y[0]"] ;
77 -> 78 ;
79 [label="gini = 0.0\nsamples = 12\nvalue = [0, 12]\nclass = y[1]"] ;
77 -> 79 ;
80 [label="X[5] <= 0.5\ngini = 0.408\nsamples = 7\nvalue = [2, 5]\nclass = y[1]"] ;
74 -> 80 ;
81 [label="gini = 0.0\nsamples = 1\nvalue = [1, 0]\nclass = y[0]"] ;
80 -> 81 ;
82 [label="X[0] <= -1.873\ngini = 0.278\nsamples = 6\nvalue = [1, 5]\nclass = y[1]"] ;
80 -> 82 ;
83 [label="X[21] <= -0.766\ngini = 0.5\nsamples = 2\nvalue = [1, 1]\nclass = y[0]"] ;
82 -> 83 ;
84 [label="gini = 0.0\nsamples = 1\nvalue = [0, 1]\nclass = y[1]"] ;
83 -> 84 ;
85 [label="gini = 0.0\nsamples = 1\nvalue = [1, 0]\nclass = y[0]"] ;
83 -> 85 ;
86 [label="gini = 0.0\nsamples = 4\nvalue = [0, 4]\nclass = y[1]"] ;
82 -> 86 ;
87 [label="gini = 0.0\nsamples = 1\nvalue = [1, 0]\nclass = y[0]"] ;
73 -> 87 ;
88 [label="X[2] <= 0.5\ngini = 0.49\nsamples = 21\nvalue = [9, 12]\nclass = y[1]"] ;
72 -> 88 ;
89 [label="X[0] <= -1.313\ngini = 0.49\nsamples = 14\nvalue = [8, 6]\nclass = y[0]"] ;
88 -> 89 ;
90 [label="X[21] <= -0.766\ngini = 0.278\nsamples = 6\nvalue = [5, 1]\nclass = y[0]"] ;
89 -> 90 ;
91 [label="gini = 0.0\nsamples = 3\nvalue = [3, 0]\nclass = y[0]"] ;
90 -> 91 ;
92 [label="X[0] <= -1.43\ngini = 0.444\nsamples = 3\nvalue = [2, 1]\nclass = y[0]"] ;
90 -> 92 ;
93 [label="gini = 0.0\nsamples = 2\nvalue = [2, 0]\nclass = y[0]"] ;
92 -> 93 ;
94 [label="gini = 0.0\nsamples = 1\nvalue = [0, 1]\nclass = y[1]"] ;
92 -> 94 ;
95 [label="X[21] <= -0.766\ngini = 0.469\nsamples = 8\nvalue = [3, 5]\nclass = y[1]"] ;
89 -> 95 ;
96 [label="X[0] <= -0.381\ngini = 0.278\nsamples = 6\nvalue = [1, 5]\nclass = y[1]"] ;
95 -> 96 ;
97 [label="gini = 0.0\nsamples = 5\nvalue = [0, 5]\nclass = y[1]"] ;
96 -> 97 ;
98 [label="gini = 0.0\nsamples = 1\nvalue = [1, 0]\nclass = y[0]"] ;
96 -> 98 ;
99 [label="gini = 0.0\nsamples = 2\nvalue = [2, 0]\nclass = y[0]"] ;
95 -> 99 ;
100 [label="X[0] <= -0.505\ngini = 0.245\nsamples = 7\nvalue = [1, 6]\nclass = y[1]"] ;
88 -> 100 ;
101 [label="gini = 0.0\nsamples = 6\nvalue = [0, 6]\nclass = y[1]"] ;
100 -> 101 ;
102 [label="gini = 0.0\nsamples = 1\nvalue = [1, 0]\nclass = y[0]"] ;
100 -> 102 ;
103 [label="X[10] <= 0.5\ngini = 0.013\nsamples = 1662\nvalue = [11, 1651]\nclass = y[1]"] ;
71 -> 103 ;
104 [label="X[21] <= 0.898\ngini = 0.011\nsamples = 1653\nvalue = [9, 1644]\nclass = y[1]"] ;
103 -> 104 ;
105 [label="X[21] <= 0.066\ngini = 0.01\nsamples = 1650\nvalue = [8, 1642]\nclass = y[1]"] ;
104 -> 105 ;
106 [label="X[26] <= -0.772\ngini = 0.006\nsamples = 1588\nvalue = [5, 1583]\nclass = y[1]"] ;
105 -> 106 ;
107 [label="X[0] <= -1.077\ngini = 0.043\nsamples = 181\nvalue = [4, 177]\nclass = y[1]"] ;
106 -> 107 ;
108 [label="X[18] <= -1.16\ngini = 0.013\nsamples = 149\nvalue = [1, 148]\nclass = y[1]"] ;
107 -> 108 ;
109 [label="gini = 0.0\nsamples = 135\nvalue = [0, 135]\nclass = y[1]"] ;
108 -> 109 ;
110 [label="X[23] <= -0.576\ngini = 0.133\nsamples = 14\nvalue = [1, 13]\nclass = y[1]"] ;
108 -> 110 ;
111 [label="X[27] <= 0.587\ngini = 0.444\nsamples = 3\nvalue = [1, 2]\nclass = y[1]"] ;
110 -> 111 ;
112 [label="gini = 0.0\nsamples = 1\nvalue = [1, 0]\nclass = y[0]"] ;
111 -> 112 ;
113 [label="gini = 0.0\nsamples = 2\nvalue = [0, 2]\nclass = y[1]"] ;
111 -> 113 ;
114 [label="gini = 0.0\nsamples = 11\nvalue = [0, 11]\nclass = y[1]"] ;
110 -> 114 ;
115 [label="X[0] <= -1.064\ngini = 0.17\nsamples = 32\nvalue = [3, 29]\nclass = y[1]"] ;
107 -> 115 ;
116 [label="gini = 0.0\nsamples = 1\nvalue = [1, 0]\nclass = y[0]"] ;
115 -> 116 ;
117 [label="X[0] <= -0.995\ngini = 0.121\nsamples = 31\nvalue = [2, 29]\nclass = y[1]"] ;
115 -> 117 ;
118 [label="X[24] <= -0.404\ngini = 0.375\nsamples = 4\nvalue = [1, 3]\nclass = y[1]"] ;
117 -> 118 ;
119 [label="gini = 0.0\nsamples = 3\nvalue = [0, 3]\nclass = y[1]"] ;
118 -> 119 ;
120 [label="gini = 0.0\nsamples = 1\nvalue = [1, 0]\nclass = y[0]"] ;
118 -> 120 ;
121 [label="X[23] <= -0.576\ngini = 0.071\nsamples = 27\nvalue = [1, 26]\nclass = y[1]"] ;
117 -> 121 ;
122 [label="X[0] <= -0.828\ngini = 0.32\nsamples = 5\nvalue = [1, 4]\nclass = y[1]"] ;
121 -> 122 ;
123 [label="gini = 0.0\nsamples = 3\nvalue = [0, 3]\nclass = y[1]"] ;
122 -> 123 ;
124 [label="X[1] <= 0.5\ngini = 0.5\nsamples = 2\nvalue = [1, 1]\nclass = y[0]"] ;
122 -> 124 ;
125 [label="gini = 0.0\nsamples = 1\nvalue = [1, 0]\nclass = y[0]"] ;
124 -> 125 ;
126 [label="gini = 0.0\nsamples = 1\nvalue = [0, 1]\nclass = y[1]"] ;
124 -> 126 ;
127 [label="gini = 0.0\nsamples = 22\nvalue = [0, 22]\nclass = y[1]"] ;
121 -> 127 ;
128 [label="X[2] <= 0.5\ngini = 0.001\nsamples = 1407\nvalue = [1, 1406]\nclass = y[1]"] ;
106 -> 128 ;
129 [label="X[23] <= -0.313\ngini = 0.004\nsamples = 474\nvalue = [1, 473]\nclass = y[1]"] ;
128 -> 129 ;
130 [label="X[17] <= 0.5\ngini = 0.011\nsamples = 181\nvalue = [1, 180]\nclass = y[1]"] ;
129 -> 130 ;
131 [label="gini = 0.0\nsamples = 128\nvalue = [0, 128]\nclass = y[1]"] ;
130 -> 131 ;
132 [label="X[0] <= -1.138\ngini = 0.037\nsamples = 53\nvalue = [1, 52]\nclass = y[1]"] ;
130 -> 132 ;
133 [label="gini = 0.0\nsamples = 37\nvalue = [0, 37]\nclass = y[1]"] ;
132 -> 133 ;
134 [label="X[0] <= -1.081\ngini = 0.117\nsamples = 16\nvalue = [1, 15]\nclass = y[1]"] ;
132 -> 134 ;
135 [label="gini = 0.0\nsamples = 1\nvalue = [1, 0]\nclass = y[0]"] ;
134 -> 135 ;
136 [label="gini = 0.0\nsamples = 15\nvalue = [0, 15]\nclass = y[1]"] ;
134 -> 136 ;
137 [label="gini = 0.0\nsamples = 293\nvalue = [0, 293]\nclass = y[1]"] ;
129 -> 137 ;
138 [label="gini = 0.0\nsamples = 933\nvalue = [0, 933]\nclass = y[1]"] ;
128 -> 138 ;
139 [label="X[14] <= 0.5\ngini = 0.092\nsamples = 62\nvalue = [3, 59]\nclass = y[1]"] ;
105 -> 139 ;
140 [label="X[0] <= 0.175\ngini = 0.064\nsamples = 60\nvalue = [2, 58]\nclass = y[1]"] ;
139 -> 140 ;
141 [label="X[16] <= 0.5\ngini = 0.035\nsamples = 56\nvalue = [1, 55]\nclass = y[1]"] ;
140 -> 141 ;
142 [label="gini = 0.0\nsamples = 48\nvalue = [0, 48]\nclass = y[1]"] ;
141 -> 142 ;
143 [label="X[2] <= 0.5\ngini = 0.219\nsamples = 8\nvalue = [1, 7]\nclass = y[1]"] ;
141 -> 143 ;
144 [label="gini = 0.0\nsamples = 1\nvalue = [1, 0]\nclass = y[0]"] ;
143 -> 144 ;
145 [label="gini = 0.0\nsamples = 7\nvalue = [0, 7]\nclass = y[1]"] ;
143 -> 145 ;
146 [label="X[0] <= 0.227\ngini = 0.375\nsamples = 4\nvalue = [1, 3]\nclass = y[1]"] ;
140 -> 146 ;
147 [label="gini = 0.0\nsamples = 1\nvalue = [1, 0]\nclass = y[0]"] ;
146 -> 147 ;
148 [label="gini = 0.0\nsamples = 3\nvalue = [0, 3]\nclass = y[1]"] ;
146 -> 148 ;
149 [label="X[0] <= -0.442\ngini = 0.5\nsamples = 2\nvalue = [1, 1]\nclass = y[0]"] ;
139 -> 149 ;
150 [label="gini = 0.0\nsamples = 1\nvalue = [1, 0]\nclass = y[0]"] ;
149 -> 150 ;
151 [label="gini = 0.0\nsamples = 1\nvalue = [0, 1]\nclass = y[1]"] ;
149 -> 151 ;
152 [label="X[0] <= -0.27\ngini = 0.444\nsamples = 3\nvalue = [1, 2]\nclass = y[1]"] ;
104 -> 152 ;
153 [label="gini = 0.0\nsamples = 1\nvalue = [1, 0]\nclass = y[0]"] ;
152 -> 153 ;
154 [label="gini = 0.0\nsamples = 2\nvalue = [0, 2]\nclass = y[1]"] ;
152 -> 154 ;
155 [label="X[26] <= 0.871\ngini = 0.346\nsamples = 9\nvalue = [2, 7]\nclass = y[1]"] ;
103 -> 155 ;
156 [label="gini = 0.0\nsamples = 6\nvalue = [0, 6]\nclass = y[1]"] ;
155 -> 156 ;
157 [label="X[0] <= 0.515\ngini = 0.444\nsamples = 3\nvalue = [2, 1]\nclass = y[0]"] ;
155 -> 157 ;
158 [label="gini = 0.0\nsamples = 2\nvalue = [2, 0]\nclass = y[0]"] ;
157 -> 158 ;
159 [label="gini = 0.0\nsamples = 1\nvalue = [0, 1]\nclass = y[1]"] ;
157 -> 159 ;
160 [label="X[23] <= -0.576\ngini = 0.333\nsamples = 294\nvalue = [62, 232]\nclass = y[1]"] ;
70 -> 160 ;
161 [label="X[21] <= -0.766\ngini = 0.458\nsamples = 76\nvalue = [49, 27]\nclass = y[0]"] ;
160 -> 161 ;
162 [label="X[0] <= -0.521\ngini = 0.423\nsamples = 23\nvalue = [7, 16]\nclass = y[1]"] ;
161 -> 162 ;
163 [label="X[0] <= -1.625\ngini = 0.32\nsamples = 20\nvalue = [4, 16]\nclass = y[1]"] ;
162 -> 163 ;
164 [label="gini = 0.0\nsamples = 2\nvalue = [2, 0]\nclass = y[0]"] ;
163 -> 164 ;
165 [label="X[2] <= 0.5\ngini = 0.198\nsamples = 18\nvalue = [2, 16]\nclass = y[1]"] ;
163 -> 165 ;
166 [label="gini = 0.0\nsamples = 9\nvalue = [0, 9]\nclass = y[1]"] ;
165 -> 166 ;
167 [label="X[23] <= -0.838\ngini = 0.346\nsamples = 9\nvalue = [2, 7]\nclass = y[1]"] ;
165 -> 167 ;
168 [label="X[22] <= 0.554\ngini = 0.5\nsamples = 2\nvalue = [1, 1]\nclass = y[0]"] ;
167 -> 168 ;
169 [label="gini = 0.0\nsamples = 1\nvalue = [1, 0]\nclass = y[0]"] ;
168 -> 169 ;
170 [label="gini = 0.0\nsamples = 1\nvalue = [0, 1]\nclass = y[1]"] ;
168 -> 170 ;
171 [label="X[0] <= -0.753\ngini = 0.245\nsamples = 7\nvalue = [1, 6]\nclass = y[1]"] ;
167 -> 171 ;
172 [label="gini = 0.0\nsamples = 5\nvalue = [0, 5]\nclass = y[1]"] ;
171 -> 172 ;
173 [label="X[0] <= -0.692\ngini = 0.5\nsamples = 2\nvalue = [1, 1]\nclass = y[0]"] ;
171 -> 173 ;
174 [label="gini = 0.0\nsamples = 1\nvalue = [1, 0]\nclass = y[0]"] ;
173 -> 174 ;
175 [label="gini = 0.0\nsamples = 1\nvalue = [0, 1]\nclass = y[1]"] ;
173 -> 175 ;
176 [label="gini = 0.0\nsamples = 3\nvalue = [3, 0]\nclass = y[0]"] ;
162 -> 176 ;
177 [label="X[23] <= -0.838\ngini = 0.329\nsamples = 53\nvalue = [42, 11]\nclass = y[0]"] ;
161 -> 177 ;
178 [label="X[0] <= -0.91\ngini = 0.133\nsamples = 28\nvalue = [26, 2]\nclass = y[0]"] ;
177 -> 178 ;
179 [label="gini = 0.0\nsamples = 20\nvalue = [20, 0]\nclass = y[0]"] ;
178 -> 179 ;
180 [label="X[0] <= -0.86\ngini = 0.375\nsamples = 8\nvalue = [6, 2]\nclass = y[0]"] ;
178 -> 180 ;
181 [label="gini = 0.0\nsamples = 1\nvalue = [0, 1]\nclass = y[1]"] ;
180 -> 181 ;
182 [label="X[21] <= 0.066\ngini = 0.245\nsamples = 7\nvalue = [6, 1]\nclass = y[0]"] ;
180 -> 182 ;
183 [label="gini = 0.0\nsamples = 4\nvalue = [4, 0]\nclass = y[0]"] ;
182 -> 183 ;
184 [label="X[1] <= 0.5\ngini = 0.444\nsamples = 3\nvalue = [2, 1]\nclass = y[0]"] ;
182 -> 184 ;
185 [label="gini = 0.0\nsamples = 2\nvalue = [2, 0]\nclass = y[0]"] ;
184 -> 185 ;
186 [label="gini = 0.0\nsamples = 1\nvalue = [0, 1]\nclass = y[1]"] ;
184 -> 186 ;
187 [label="X[5] <= 0.5\ngini = 0.461\nsamples = 25\nvalue = [16, 9]\nclass = y[0]"] ;
177 -> 187 ;
188 [label="X[0] <= -1.157\ngini = 0.496\nsamples = 11\nvalue = [5, 6]\nclass = y[1]"] ;
187 -> 188 ;
189 [label="X[17] <= 0.5\ngini = 0.32\nsamples = 5\nvalue = [4, 1]\nclass = y[0]"] ;
188 -> 189 ;
190 [label="gini = 0.0\nsamples = 4\nvalue = [4, 0]\nclass = y[0]"] ;
189 -> 190 ;
191 [label="gini = 0.0\nsamples = 1\nvalue = [0, 1]\nclass = y[1]"] ;
189 -> 191 ;
192 [label="X[20] <= 0.201\ngini = 0.278\nsamples = 6\nvalue = [1, 5]\nclass = y[1]"] ;
188 -> 192 ;
193 [label="gini = 0.0\nsamples = 5\nvalue = [0, 5]\nclass = y[1]"] ;
192 -> 193 ;
194 [label="gini = 0.0\nsamples = 1\nvalue = [1, 0]\nclass = y[0]"] ;
192 -> 194 ;
195 [label="X[11] <= 0.5\ngini = 0.337\nsamples = 14\nvalue = [11, 3]\nclass = y[0]"] ;
187 -> 195 ;
196 [label="X[0] <= -1.259\ngini = 0.26\nsamples = 13\nvalue = [11, 2]\nclass = y[0]"] ;
195 -> 196 ;
197 [label="gini = 0.0\nsamples = 1\nvalue = [0, 1]\nclass = y[1]"] ;
196 -> 197 ;
198 [label="X[26] <= 0.049\ngini = 0.153\nsamples = 12\nvalue = [11, 1]\nclass = y[0]"] ;
196 -> 198 ;
199 [label="gini = 0.0\nsamples = 11\nvalue = [11, 0]\nclass = y[0]"] ;
198 -> 199 ;
200 [label="gini = 0.0\nsamples = 1\nvalue = [0, 1]\nclass = y[1]"] ;
198 -> 200 ;
201 [label="gini = 0.0\nsamples = 1\nvalue = [0, 1]\nclass = y[1]"] ;
195 -> 201 ;
202 [label="X[10] <= 0.5\ngini = 0.112\nsamples = 218\nvalue = [13, 205]\nclass = y[1]"] ;
160 -> 202 ;
203 [label="X[0] <= 1.603\ngini = 0.083\nsamples = 207\nvalue = [9, 198]\nclass = y[1]"] ;
202 -> 203 ;
204 [label="X[23] <= -0.313\ngini = 0.075\nsamples = 206\nvalue = [8, 198]\nclass = y[1]"] ;
203 -> 204 ;
205 [label="X[5] <= 0.5\ngini = 0.219\nsamples = 40\nvalue = [5, 35]\nclass = y[1]"] ;
204 -> 205 ;
206 [label="gini = 0.0\nsamples = 23\nvalue = [0, 23]\nclass = y[1]"] ;
205 -> 206 ;
207 [label="X[21] <= -0.766\ngini = 0.415\nsamples = 17\nvalue = [5, 12]\nclass = y[1]"] ;
205 -> 207 ;
208 [label="gini = 0.0\nsamples = 6\nvalue = [0, 6]\nclass = y[1]"] ;
207 -> 208 ;
209 [label="X[13] <= 0.5\ngini = 0.496\nsamples = 11\nvalue = [5, 6]\nclass = y[1]"] ;
207 -> 209 ;
210 [label="gini = 0.0\nsamples = 3\nvalue = [3, 0]\nclass = y[0]"] ;
209 -> 210 ;
211 [label="X[0] <= -0.871\ngini = 0.375\nsamples = 8\nvalue = [2, 6]\nclass = y[1]"] ;
209 -> 211 ;
212 [label="gini = 0.0\nsamples = 1\nvalue = [1, 0]\nclass = y[0]"] ;
211 -> 212 ;
213 [label="X[21] <= 0.898\ngini = 0.245\nsamples = 7\nvalue = [1, 6]\nclass = y[1]"] ;
211 -> 213 ;
214 [label="gini = 0.0\nsamples = 6\nvalue = [0, 6]\nclass = y[1]"] ;
213 -> 214 ;
215 [label="gini = 0.0\nsamples = 1\nvalue = [1, 0]\nclass = y[0]"] ;
213 -> 215 ;
216 [label="X[0] <= -0.02\ngini = 0.035\nsamples = 166\nvalue = [3, 163]\nclass = y[1]"] ;
204 -> 216 ;
217 [label="gini = 0.0\nsamples = 122\nvalue = [0, 122]\nclass = y[1]"] ;
216 -> 217 ;
218 [label="X[0] <= -0.018\ngini = 0.127\nsamples = 44\nvalue = [3, 41]\nclass = y[1]"] ;
216 -> 218 ;
219 [label="gini = 0.0\nsamples = 1\nvalue = [1, 0]\nclass = y[0]"] ;
218 -> 219 ;
220 [label="X[0] <= 0.005\ngini = 0.089\nsamples = 43\nvalue = [2, 41]\nclass = y[1]"] ;
218 -> 220 ;
221 [label="X[6] <= 0.5\ngini = 0.444\nsamples = 3\nvalue = [1, 2]\nclass = y[1]"] ;
220 -> 221 ;
222 [label="gini = 0.0\nsamples = 2\nvalue = [0, 2]\nclass = y[1]"] ;
221 -> 222 ;
223 [label="gini = 0.0\nsamples = 1\nvalue = [1, 0]\nclass = y[0]"] ;
221 -> 223 ;
224 [label="X[27] <= 0.587\ngini = 0.049\nsamples = 40\nvalue = [1, 39]\nclass = y[1]"] ;
220 -> 224 ;
225 [label="gini = 0.0\nsamples = 30\nvalue = [0, 30]\nclass = y[1]"] ;
224 -> 225 ;
226 [label="X[0] <= 0.457\ngini = 0.18\nsamples = 10\nvalue = [1, 9]\nclass = y[1]"] ;
224 -> 226 ;
227 [label="X[0] <= 0.351\ngini = 0.444\nsamples = 3\nvalue = [1, 2]\nclass = y[1]"] ;
226 -> 227 ;
228 [label="gini = 0.0\nsamples = 2\nvalue = [0, 2]\nclass = y[1]"] ;
227 -> 228 ;
229 [label="gini = 0.0\nsamples = 1\nvalue = [1, 0]\nclass = y[0]"] ;
227 -> 229 ;
230 [label="gini = 0.0\nsamples = 7\nvalue = [0, 7]\nclass = y[1]"] ;
226 -> 230 ;
231 [label="gini = 0.0\nsamples = 1\nvalue = [1, 0]\nclass = y[0]"] ;
203 -> 231 ;
232 [label="X[0] <= -0.049\ngini = 0.463\nsamples = 11\nvalue = [4, 7]\nclass = y[1]"] ;
202 -> 232 ;
233 [label="X[26] <= -0.772\ngini = 0.32\nsamples = 5\nvalue = [4, 1]\nclass = y[0]"] ;
232 -> 233 ;
234 [label="gini = 0.0\nsamples = 1\nvalue = [0, 1]\nclass = y[1]"] ;
233 -> 234 ;
235 [label="gini = 0.0\nsamples = 4\nvalue = [4, 0]\nclass = y[0]"] ;
233 -> 235 ;
236 [label="gini = 0.0\nsamples = 6\nvalue = [0, 6]\nclass = y[1]"] ;
232 -> 236 ;
237 [label="X[24] <= -0.404\ngini = 0.04\nsamples = 18619\nvalue = [18238, 381]\nclass = y[0]"] ;
1 -> 237 ;
238 [label="X[18] <= -0.09\ngini = 0.014\nsamples = 17546\nvalue = [17418, 128]\nclass = y[0]"] ;
237 -> 238 ;
239 [label="X[23] <= -0.576\ngini = 0.141\nsamples = 1249\nvalue = [1154, 95]\nclass = y[0]"] ;
238 -> 239 ;
240 [label="X[25] <= 0.125\ngini = 0.027\nsamples = 1084\nvalue = [1069, 15]\nclass = y[0]"] ;
239 -> 240 ;
241 [label="X[0] <= -0.721\ngini = 0.018\nsamples = 1077\nvalue = [1067, 10]\nclass = y[0]"] ;
240 -> 241 ;
242 [label="X[23] <= -0.838\ngini = 0.002\nsamples = 858\nvalue = [857, 1]\nclass = y[0]"] ;
241 -> 242 ;
243 [label="gini = 0.0\nsamples = 821\nvalue = [821, 0]\nclass = y[0]"] ;
242 -> 243 ;
244 [label="X[0] <= -1.376\ngini = 0.053\nsamples = 37\nvalue = [36, 1]\nclass = y[0]"] ;
242 -> 244 ;
245 [label="X[14] <= 0.5\ngini = 0.444\nsamples = 3\nvalue = [2, 1]\nclass = y[0]"] ;
244 -> 245 ;
246 [label="gini = 0.0\nsamples = 2\nvalue = [2, 0]\nclass = y[0]"] ;
245 -> 246 ;
247 [label="gini = 0.0\nsamples = 1\nvalue = [0, 1]\nclass = y[1]"] ;
245 -> 247 ;
248 [label="gini = 0.0\nsamples = 34\nvalue = [34, 0]\nclass = y[0]"] ;
244 -> 248 ;
249 [label="X[0] <= -0.716\ngini = 0.079\nsamples = 219\nvalue = [210, 9]\nclass = y[0]"] ;
241 -> 249 ;
250 [label="X[5] <= 0.5\ngini = 0.5\nsamples = 2\nvalue = [1, 1]\nclass = y[0]"] ;
249 -> 250 ;
251 [label="gini = 0.0\nsamples = 1\nvalue = [1, 0]\nclass = y[0]"] ;
250 -> 251 ;
252 [label="gini = 0.0\nsamples = 1\nvalue = [0, 1]\nclass = y[1]"] ;
250 -> 252 ;
253 [label="X[18] <= -0.357\ngini = 0.071\nsamples = 217\nvalue = [209, 8]\nclass = y[0]"] ;
249 -> 253 ;
254 [label="X[0] <= 0.376\ngini = 0.17\nsamples = 64\nvalue = [58, 6]\nclass = y[0]"] ;
253 -> 254 ;
255 [label="X[0] <= -0.682\ngini = 0.128\nsamples = 58\nvalue = [54, 4]\nclass = y[0]"] ;
254 -> 255 ;
256 [label="X[0] <= -0.698\ngini = 0.444\nsamples = 3\nvalue = [2, 1]\nclass = y[0]"] ;
255 -> 256 ;
257 [label="gini = 0.0\nsamples = 2\nvalue = [2, 0]\nclass = y[0]"] ;
256 -> 257 ;
258 [label="gini = 0.0\nsamples = 1\nvalue = [0, 1]\nclass = y[1]"] ;
256 -> 258 ;
259 [label="X[23] <= -1.101\ngini = 0.103\nsamples = 55\nvalue = [52, 3]\nclass = y[0]"] ;
255 -> 259 ;
260 [label="gini = 0.0\nsamples = 22\nvalue = [22, 0]\nclass = y[0]"] ;
259 -> 260 ;
261 [label="X[13] <= 0.5\ngini = 0.165\nsamples = 33\nvalue = [30, 3]\nclass = y[0]"] ;
259 -> 261 ;
262 [label="gini = 0.0\nsamples = 16\nvalue = [16, 0]\nclass = y[0]"] ;
261 -> 262 ;
263 [label="X[20] <= 0.201\ngini = 0.291\nsamples = 17\nvalue = [14, 3]\nclass = y[0]"] ;
261 -> 263 ;
264 [label="X[26] <= -0.772\ngini = 0.42\nsamples = 10\nvalue = [7, 3]\nclass = y[0]"] ;
263 -> 264 ;
265 [label="X[0] <= -0.626\ngini = 0.245\nsamples = 7\nvalue = [6, 1]\nclass = y[0]"] ;
264 -> 265 ;
266 [label="X[4] <= 0.5\ngini = 0.5\nsamples = 2\nvalue = [1, 1]\nclass = y[0]"] ;
265 -> 266 ;
267 [label="gini = 0.0\nsamples = 1\nvalue = [1, 0]\nclass = y[0]"] ;
266 -> 267 ;
268 [label="gini = 0.0\nsamples = 1\nvalue = [0, 1]\nclass = y[1]"] ;
266 -> 268 ;
269 [label="gini = 0.0\nsamples = 5\nvalue = [5, 0]\nclass = y[0]"] ;
265 -> 269 ;
270 [label="X[15] <= 0.5\ngini = 0.444\nsamples = 3\nvalue = [1, 2]\nclass = y[1]"] ;
264 -> 270 ;
271 [label="gini = 0.0\nsamples = 1\nvalue = [1, 0]\nclass = y[0]"] ;
270 -> 271 ;
272 [label="gini = 0.0\nsamples = 2\nvalue = [0, 2]\nclass = y[1]"] ;
270 -> 272 ;
273 [label="gini = 0.0\nsamples = 7\nvalue = [7, 0]\nclass = y[0]"] ;
263 -> 273 ;
274 [label="X[0] <= 0.413\ngini = 0.444\nsamples = 6\nvalue = [4, 2]\nclass = y[0]"] ;
254 -> 274 ;
275 [label="gini = 0.0\nsamples = 1\nvalue = [0, 1]\nclass = y[1]"] ;
274 -> 275 ;
276 [label="X[26] <= 0.049\ngini = 0.32\nsamples = 5\nvalue = [4, 1]\nclass = y[0]"] ;
274 -> 276 ;
277 [label="gini = 0.0\nsamples = 3\nvalue = [3, 0]\nclass = y[0]"] ;
276 -> 277 ;
278 [label="X[14] <= 0.5\ngini = 0.5\nsamples = 2\nvalue = [1, 1]\nclass = y[0]"] ;
276 -> 278 ;
279 [label="gini = 0.0\nsamples = 1\nvalue = [1, 0]\nclass = y[0]"] ;
278 -> 279 ;
280 [label="gini = 0.0\nsamples = 1\nvalue = [0, 1]\nclass = y[1]"] ;
278 -> 280 ;
281 [label="X[26] <= 0.871\ngini = 0.026\nsamples = 153\nvalue = [151, 2]\nclass = y[0]"] ;
253 -> 281 ;
282 [label="X[14] <= 0.5\ngini = 0.013\nsamples = 149\nvalue = [148, 1]\nclass = y[0]"] ;
281 -> 282 ;
283 [label="gini = 0.0\nsamples = 99\nvalue = [99, 0]\nclass = y[0]"] ;
282 -> 283 ;
284 [label="X[21] <= 0.066\ngini = 0.039\nsamples = 50\nvalue = [49, 1]\nclass = y[0]"] ;
282 -> 284 ;
285 [label="gini = 0.0\nsamples = 34\nvalue = [34, 0]\nclass = y[0]"] ;
284 -> 285 ;
286 [label="X[1] <= 0.5\ngini = 0.117\nsamples = 16\nvalue = [15, 1]\nclass = y[0]"] ;
284 -> 286 ;
287 [label="X[23] <= -0.838\ngini = 0.245\nsamples = 7\nvalue = [6, 1]\nclass = y[0]"] ;
286 -> 287 ;
288 [label="gini = 0.0\nsamples = 4\nvalue = [4, 0]\nclass = y[0]"] ;
287 -> 288 ;
289 [label="X[6] <= 0.5\ngini = 0.444\nsamples = 3\nvalue = [2, 1]\nclass = y[0]"] ;
287 -> 289 ;
290 [label="gini = 0.0\nsamples = 2\nvalue = [2, 0]\nclass = y[0]"] ;
289 -> 290 ;
291 [label="gini = 0.0\nsamples = 1\nvalue = [0, 1]\nclass = y[1]"] ;
289 -> 291 ;
292 [label="gini = 0.0\nsamples = 9\nvalue = [9, 0]\nclass = y[0]"] ;
286 -> 292 ;
293 [label="X[0] <= -0.255\ngini = 0.375\nsamples = 4\nvalue = [3, 1]\nclass = y[0]"] ;
281 -> 293 ;
294 [label="gini = 0.0\nsamples = 1\nvalue = [0, 1]\nclass = y[1]"] ;
293 -> 294 ;
295 [label="gini = 0.0\nsamples = 3\nvalue = [3, 0]\nclass = y[0]"] ;
293 -> 295 ;
296 [label="X[21] <= 0.066\ngini = 0.408\nsamples = 7\nvalue = [2, 5]\nclass = y[1]"] ;
240 -> 296 ;
297 [label="gini = 0.0\nsamples = 5\nvalue = [0, 5]\nclass = y[1]"] ;
296 -> 297 ;
298 [label="gini = 0.0\nsamples = 2\nvalue = [2, 0]\nclass = y[0]"] ;
296 -> 298 ;
299 [label="X[4] <= 0.5\ngini = 0.5\nsamples = 165\nvalue = [85, 80]\nclass = y[0]"] ;
239 -> 299 ;
300 [label="X[11] <= 0.5\ngini = 0.383\nsamples = 89\nvalue = [66, 23]\nclass = y[0]"] ;
299 -> 300 ;
301 [label="X[21] <= -0.766\ngini = 0.265\nsamples = 70\nvalue = [59, 11]\nclass = y[0]"] ;
300 -> 301 ;
302 [label="X[6] <= 0.5\ngini = 0.499\nsamples = 19\nvalue = [10, 9]\nclass = y[0]"] ;
301 -> 302 ;
303 [label="gini = 0.0\nsamples = 6\nvalue = [6, 0]\nclass = y[0]"] ;
302 -> 303 ;
304 [label="X[23] <= -0.313\ngini = 0.426\nsamples = 13\nvalue = [4, 9]\nclass = y[1]"] ;
302 -> 304 ;
305 [label="gini = 0.0\nsamples = 2\nvalue = [2, 0]\nclass = y[0]"] ;
304 -> 305 ;
306 [label="X[0] <= 0.021\ngini = 0.298\nsamples = 11\nvalue = [2, 9]\nclass = y[1]"] ;
304 -> 306 ;
307 [label="gini = 0.0\nsamples = 8\nvalue = [0, 8]\nclass = y[1]"] ;
306 -> 307 ;
308 [label="X[0] <= 0.651\ngini = 0.444\nsamples = 3\nvalue = [2, 1]\nclass = y[0]"] ;
306 -> 308 ;
309 [label="gini = 0.0\nsamples = 2\nvalue = [2, 0]\nclass = y[0]"] ;
308 -> 309 ;
310 [label="gini = 0.0\nsamples = 1\nvalue = [0, 1]\nclass = y[1]"] ;
308 -> 310 ;
311 [label="X[14] <= 0.5\ngini = 0.075\nsamples = 51\nvalue = [49, 2]\nclass = y[0]"] ;
301 -> 311 ;
312 [label="gini = 0.0\nsamples = 27\nvalue = [27, 0]\nclass = y[0]"] ;
311 -> 312 ;
313 [label="X[7] <= 0.5\ngini = 0.153\nsamples = 24\nvalue = [22, 2]\nclass = y[0]"] ;
311 -> 313 ;
314 [label="X[23] <= -0.051\ngini = 0.26\nsamples = 13\nvalue = [11, 2]\nclass = y[0]"] ;
313 -> 314 ;
315 [label="X[21] <= 0.066\ngini = 0.153\nsamples = 12\nvalue = [11, 1]\nclass = y[0]"] ;
314 -> 315 ;
316 [label="gini = 0.0\nsamples = 8\nvalue = [8, 0]\nclass = y[0]"] ;
315 -> 316 ;
317 [label="X[0] <= -0.59\ngini = 0.375\nsamples = 4\nvalue = [3, 1]\nclass = y[0]"] ;
315 -> 317 ;
318 [label="gini = 0.0\nsamples = 1\nvalue = [0, 1]\nclass = y[1]"] ;
317 -> 318 ;
319 [label="gini = 0.0\nsamples = 3\nvalue = [3, 0]\nclass = y[0]"] ;
317 -> 319 ;
320 [label="gini = 0.0\nsamples = 1\nvalue = [0, 1]\nclass = y[1]"] ;
314 -> 320 ;
321 [label="gini = 0.0\nsamples = 11\nvalue = [11, 0]\nclass = y[0]"] ;
313 -> 321 ;
322 [label="X[18] <= -0.357\ngini = 0.465\nsamples = 19\nvalue = [7, 12]\nclass = y[1]"] ;
300 -> 322 ;
323 [label="gini = 0.0\nsamples = 9\nvalue = [0, 9]\nclass = y[1]"] ;
322 -> 323 ;
324 [label="X[26] <= 0.049\ngini = 0.42\nsamples = 10\nvalue = [7, 3]\nclass = y[0]"] ;
322 -> 324 ;
325 [label="X[27] <= 0.587\ngini = 0.48\nsamples = 5\nvalue = [2, 3]\nclass = y[1]"] ;
324 -> 325 ;
326 [label="gini = 0.0\nsamples = 2\nvalue = [2, 0]\nclass = y[0]"] ;
325 -> 326 ;
327 [label="gini = 0.0\nsamples = 3\nvalue = [0, 3]\nclass = y[1]"] ;
325 -> 327 ;
328 [label="gini = 0.0\nsamples = 5\nvalue = [5, 0]\nclass = y[0]"] ;
324 -> 328 ;
329 [label="X[26] <= -0.772\ngini = 0.375\nsamples = 76\nvalue = [19, 57]\nclass = y[1]"] ;
299 -> 329 ;
330 [label="X[20] <= 0.201\ngini = 0.426\nsamples = 13\nvalue = [9, 4]\nclass = y[0]"] ;
329 -> 330 ;
331 [label="X[1] <= 0.5\ngini = 0.494\nsamples = 9\nvalue = [5, 4]\nclass = y[0]"] ;
330 -> 331 ;
332 [label="gini = 0.0\nsamples = 3\nvalue = [3, 0]\nclass = y[0]"] ;
331 -> 332 ;
333 [label="X[0] <= -0.381\ngini = 0.444\nsamples = 6\nvalue = [2, 4]\nclass = y[1]"] ;
331 -> 333 ;
334 [label="gini = 0.0\nsamples = 2\nvalue = [2, 0]\nclass = y[0]"] ;
333 -> 334 ;
335 [label="gini = 0.0\nsamples = 4\nvalue = [0, 4]\nclass = y[1]"] ;
333 -> 335 ;
336 [label="gini = 0.0\nsamples = 4\nvalue = [4, 0]\nclass = y[0]"] ;
330 -> 336 ;
337 [label="X[10] <= 0.5\ngini = 0.267\nsamples = 63\nvalue = [10, 53]\nclass = y[1]"] ;
329 -> 337 ;
338 [label="X[0] <= -0.266\ngini = 0.191\nsamples = 56\nvalue = [6, 50]\nclass = y[1]"] ;
337 -> 338 ;
339 [label="gini = 0.0\nsamples = 24\nvalue = [0, 24]\nclass = y[1]"] ;
338 -> 339 ;
340 [label="X[0] <= -0.249\ngini = 0.305\nsamples = 32\nvalue = [6, 26]\nclass = y[1]"] ;
338 -> 340 ;
341 [label="gini = 0.0\nsamples = 1\nvalue = [1, 0]\nclass = y[0]"] ;
340 -> 341 ;
342 [label="X[18] <= -0.357\ngini = 0.271\nsamples = 31\nvalue = [5, 26]\nclass = y[1]"] ;
340 -> 342 ;
343 [label="X[0] <= 0.818\ngini = 0.111\nsamples = 17\nvalue = [1, 16]\nclass = y[1]"] ;
342 -> 343 ;
344 [label="gini = 0.0\nsamples = 14\nvalue = [0, 14]\nclass = y[1]"] ;
343 -> 344 ;
345 [label="X[22] <= 0.554\ngini = 0.444\nsamples = 3\nvalue = [1, 2]\nclass = y[1]"] ;
343 -> 345 ;
346 [label="gini = 0.0\nsamples = 2\nvalue = [0, 2]\nclass = y[1]"] ;
345 -> 346 ;
347 [label="gini = 0.0\nsamples = 1\nvalue = [1, 0]\nclass = y[0]"] ;
345 -> 347 ;
348 [label="X[16] <= 0.5\ngini = 0.408\nsamples = 14\nvalue = [4, 10]\nclass = y[1]"] ;
342 -> 348 ;
349 [label="X[21] <= -0.766\ngini = 0.5\nsamples = 8\nvalue = [4, 4]\nclass = y[0]"] ;
348 -> 349 ;
350 [label="gini = 0.0\nsamples = 2\nvalue = [0, 2]\nclass = y[1]"] ;
349 -> 350 ;
351 [label="X[1] <= 0.5\ngini = 0.444\nsamples = 6\nvalue = [4, 2]\nclass = y[0]"] ;
349 -> 351 ;
352 [label="gini = 0.0\nsamples = 3\nvalue = [3, 0]\nclass = y[0]"] ;
351 -> 352 ;
353 [label="X[14] <= 0.5\ngini = 0.444\nsamples = 3\nvalue = [1, 2]\nclass = y[1]"] ;
351 -> 353 ;
354 [label="gini = 0.0\nsamples = 2\nvalue = [0, 2]\nclass = y[1]"] ;
353 -> 354 ;
355 [label="gini = 0.0\nsamples = 1\nvalue = [1, 0]\nclass = y[0]"] ;
353 -> 355 ;
356 [label="gini = 0.0\nsamples = 6\nvalue = [0, 6]\nclass = y[1]"] ;
348 -> 356 ;
357 [label="X[18] <= -0.357\ngini = 0.49\nsamples = 7\nvalue = [4, 3]\nclass = y[0]"] ;
337 -> 357 ;
358 [label="gini = 0.0\nsamples = 2\nvalue = [0, 2]\nclass = y[1]"] ;
357 -> 358 ;
359 [label="X[17] <= 0.5\ngini = 0.32\nsamples = 5\nvalue = [4, 1]\nclass = y[0]"] ;
357 -> 359 ;
360 [label="gini = 0.0\nsamples = 4\nvalue = [4, 0]\nclass = y[0]"] ;
359 -> 360 ;
361 [label="gini = 0.0\nsamples = 1\nvalue = [0, 1]\nclass = y[1]"] ;
359 -> 361 ;
362 [label="X[19] <= -0.426\ngini = 0.004\nsamples = 16297\nvalue = [16264, 33]\nclass = y[0]"] ;
238 -> 362 ;
363 [label="X[23] <= -0.313\ngini = 0.053\nsamples = 590\nvalue = [574, 16]\nclass = y[0]"] ;
362 -> 363 ;
364 [label="X[0] <= 0.808\ngini = 0.021\nsamples = 565\nvalue = [559, 6]\nclass = y[0]"] ;
363 -> 364 ;
365 [label="X[23] <= -0.576\ngini = 0.014\nsamples = 554\nvalue = [550, 4]\nclass = y[0]"] ;
364 -> 365 ;
366 [label="X[0] <= 0.207\ngini = 0.007\nsamples = 532\nvalue = [530, 2]\nclass = y[0]"] ;
365 -> 366 ;
367 [label="X[23] <= -1.101\ngini = 0.004\nsamples = 511\nvalue = [510, 1]\nclass = y[0]"] ;
366 -> 367 ;
368 [label="gini = 0.0\nsamples = 398\nvalue = [398, 0]\nclass = y[0]"] ;
367 -> 368 ;
369 [label="X[22] <= 0.554\ngini = 0.018\nsamples = 113\nvalue = [112, 1]\nclass = y[0]"] ;
367 -> 369 ;
370 [label="gini = 0.0\nsamples = 75\nvalue = [75, 0]\nclass = y[0]"] ;
369 -> 370 ;
371 [label="X[0] <= -0.721\ngini = 0.051\nsamples = 38\nvalue = [37, 1]\nclass = y[0]"] ;
369 -> 371 ;
372 [label="gini = 0.0\nsamples = 24\nvalue = [24, 0]\nclass = y[0]"] ;
371 -> 372 ;
373 [label="X[0] <= -0.68\ngini = 0.133\nsamples = 14\nvalue = [13, 1]\nclass = y[0]"] ;
371 -> 373 ;
374 [label="gini = 0.0\nsamples = 1\nvalue = [0, 1]\nclass = y[1]"] ;
373 -> 374 ;
375 [label="gini = 0.0\nsamples = 13\nvalue = [13, 0]\nclass = y[0]"] ;
373 -> 375 ;
376 [label="X[0] <= 0.23\ngini = 0.091\nsamples = 21\nvalue = [20, 1]\nclass = y[0]"] ;
366 -> 376 ;
377 [label="gini = 0.0\nsamples = 1\nvalue = [0, 1]\nclass = y[1]"] ;
376 -> 377 ;
378 [label="gini = 0.0\nsamples = 20\nvalue = [20, 0]\nclass = y[0]"] ;
376 -> 378 ;
379 [label="X[20] <= 0.201\ngini = 0.165\nsamples = 22\nvalue = [20, 2]\nclass = y[0]"] ;
365 -> 379 ;
380 [label="X[15] <= 0.5\ngini = 0.375\nsamples = 8\nvalue = [6, 2]\nclass = y[0]"] ;
379 -> 380 ;
381 [label="X[21] <= 0.066\ngini = 0.444\nsamples = 3\nvalue = [1, 2]\nclass = y[1]"] ;
380 -> 381 ;
382 [label="gini = 0.0\nsamples = 2\nvalue = [0, 2]\nclass = y[1]"] ;
381 -> 382 ;
383 [label="gini = 0.0\nsamples = 1\nvalue = [1, 0]\nclass = y[0]"] ;
381 -> 383 ;
384 [label="gini = 0.0\nsamples = 5\nvalue = [5, 0]\nclass = y[0]"] ;
380 -> 384 ;
385 [label="gini = 0.0\nsamples = 14\nvalue = [14, 0]\nclass = y[0]"] ;
379 -> 385 ;
386 [label="X[0] <= 0.852\ngini = 0.298\nsamples = 11\nvalue = [9, 2]\nclass = y[0]"] ;
364 -> 386 ;
387 [label="gini = 0.0\nsamples = 2\nvalue = [0, 2]\nclass = y[1]"] ;
386 -> 387 ;
388 [label="gini = 0.0\nsamples = 9\nvalue = [9, 0]\nclass = y[0]"] ;
386 -> 388 ;
389 [label="X[18] <= 0.177\ngini = 0.48\nsamples = 25\nvalue = [15, 10]\nclass = y[0]"] ;
363 -> 389 ;
390 [label="X[4] <= 0.5\ngini = 0.473\nsamples = 13\nvalue = [5, 8]\nclass = y[1]"] ;
389 -> 390 ;
391 [label="X[25] <= 0.125\ngini = 0.408\nsamples = 7\nvalue = [5, 2]\nclass = y[0]"] ;
390 -> 391 ;
392 [label="gini = 0.0\nsamples = 5\nvalue = [5, 0]\nclass = y[0]"] ;
391 -> 392 ;
393 [label="gini = 0.0\nsamples = 2\nvalue = [0, 2]\nclass = y[1]"] ;
391 -> 393 ;
394 [label="gini = 0.0\nsamples = 6\nvalue = [0, 6]\nclass = y[1]"] ;
390 -> 394 ;
395 [label="X[0] <= 1.827\ngini = 0.278\nsamples = 12\nvalue = [10, 2]\nclass = y[0]"] ;
389 -> 395 ;
396 [label="X[0] <= 0.656\ngini = 0.165\nsamples = 11\nvalue = [10, 1]\nclass = y[0]"] ;
395 -> 396 ;
397 [label="X[13] <= 0.5\ngini = 0.32\nsamples = 5\nvalue = [4, 1]\nclass = y[0]"] ;
396 -> 397 ;
398 [label="gini = 0.0\nsamples = 4\nvalue = [4, 0]\nclass = y[0]"] ;
397 -> 398 ;
399 [label="gini = 0.0\nsamples = 1\nvalue = [0, 1]\nclass = y[1]"] ;
397 -> 399 ;
400 [label="gini = 0.0\nsamples = 6\nvalue = [6, 0]\nclass = y[0]"] ;
396 -> 400 ;
401 [label="gini = 0.0\nsamples = 1\nvalue = [0, 1]\nclass = y[1]"] ;
395 -> 401 ;
402 [label="X[25] <= 3.371\ngini = 0.002\nsamples = 15707\nvalue = [15690, 17]\nclass = y[0]"] ;
362 -> 402 ;
403 [label="X[18] <= 0.177\ngini = 0.002\nsamples = 15700\nvalue = [15684, 16]\nclass = y[0]"] ;
402 -> 403 ;
404 [label="X[11] <= 0.5\ngini = 0.024\nsamples = 492\nvalue = [486, 6]\nclass = y[0]"] ;
403 -> 404 ;
405 [label="X[0] <= -1.405\ngini = 0.009\nsamples = 462\nvalue = [460, 2]\nclass = y[0]"] ;
404 -> 405 ;
406 [label="X[0] <= -1.408\ngini = 0.026\nsamples = 76\nvalue = [75, 1]\nclass = y[0]"] ;
405 -> 406 ;
407 [label="gini = 0.0\nsamples = 75\nvalue = [75, 0]\nclass = y[0]"] ;
406 -> 407 ;
408 [label="gini = 0.0\nsamples = 1\nvalue = [0, 1]\nclass = y[1]"] ;
406 -> 408 ;
409 [label="X[0] <= -0.089\ngini = 0.005\nsamples = 386\nvalue = [385, 1]\nclass = y[0]"] ;
405 -> 409 ;
410 [label="gini = 0.0\nsamples = 280\nvalue = [280, 0]\nclass = y[0]"] ;
409 -> 410 ;
411 [label="X[0] <= -0.087\ngini = 0.019\nsamples = 106\nvalue = [105, 1]\nclass = y[0]"] ;
409 -> 411 ;
412 [label="X[4] <= 0.5\ngini = 0.5\nsamples = 2\nvalue = [1, 1]\nclass = y[0]"] ;
411 -> 412 ;
413 [label="gini = 0.0\nsamples = 1\nvalue = [0, 1]\nclass = y[1]"] ;
412 -> 413 ;
414 [label="gini = 0.0\nsamples = 1\nvalue = [1, 0]\nclass = y[0]"] ;
412 -> 414 ;
415 [label="gini = 0.0\nsamples = 104\nvalue = [104, 0]\nclass = y[0]"] ;
411 -> 415 ;
416 [label="X[0] <= 0.336\ngini = 0.231\nsamples = 30\nvalue = [26, 4]\nclass = y[0]"] ;
404 -> 416 ;
417 [label="gini = 0.0\nsamples = 16\nvalue = [16, 0]\nclass = y[0]"] ;
416 -> 417 ;
418 [label="X[0] <= 1.114\ngini = 0.408\nsamples = 14\nvalue = [10, 4]\nclass = y[0]"] ;
416 -> 418 ;
419 [label="X[14] <= 0.5\ngini = 0.5\nsamples = 8\nvalue = [4, 4]\nclass = y[0]"] ;
418 -> 419 ;
420 [label="X[23] <= -0.576\ngini = 0.32\nsamples = 5\nvalue = [1, 4]\nclass = y[1]"] ;
419 -> 420 ;
421 [label="gini = 0.0\nsamples = 1\nvalue = [1, 0]\nclass = y[0]"] ;
420 -> 421 ;
422 [label="gini = 0.0\nsamples = 4\nvalue = [0, 4]\nclass = y[1]"] ;
420 -> 422 ;
423 [label="gini = 0.0\nsamples = 3\nvalue = [3, 0]\nclass = y[0]"] ;
419 -> 423 ;
424 [label="gini = 0.0\nsamples = 6\nvalue = [6, 0]\nclass = y[0]"] ;
418 -> 424 ;
425 [label="X[0] <= 1.687\ngini = 0.001\nsamples = 15208\nvalue = [15198, 10]\nclass = y[0]"] ;
403 -> 425 ;
426 [label="X[25] <= 1.748\ngini = 0.001\nsamples = 14847\nvalue = [14841, 6]\nclass = y[0]"] ;
425 -> 426 ;
427 [label="X[0] <= -1.554\ngini = 0.001\nsamples = 14749\nvalue = [14744, 5]\nclass = y[0]"] ;
426 -> 427 ;
428 [label="X[0] <= -1.556\ngini = 0.006\nsamples = 354\nvalue = [353, 1]\nclass = y[0]"] ;
427 -> 428 ;
429 [label="gini = 0.0\nsamples = 348\nvalue = [348, 0]\nclass = y[0]"] ;
428 -> 429 ;
430 [label="X[1] <= 0.5\ngini = 0.278\nsamples = 6\nvalue = [5, 1]\nclass = y[0]"] ;
428 -> 430 ;
431 [label="X[15] <= 0.5\ngini = 0.5\nsamples = 2\nvalue = [1, 1]\nclass = y[0]"] ;
430 -> 431 ;
432 [label="gini = 0.0\nsamples = 1\nvalue = [1, 0]\nclass = y[0]"] ;
431 -> 432 ;
433 [label="gini = 0.0\nsamples = 1\nvalue = [0, 1]\nclass = y[1]"] ;
431 -> 433 ;
434 [label="gini = 0.0\nsamples = 4\nvalue = [4, 0]\nclass = y[0]"] ;
430 -> 434 ;
435 [label="X[23] <= -0.313\ngini = 0.001\nsamples = 14395\nvalue = [14391, 4]\nclass = y[0]"] ;
427 -> 435 ;
436 [label="X[0] <= 0.959\ngini = 0.0\nsamples = 12885\nvalue = [12883, 2]\nclass = y[0]"] ;
435 -> 436 ;
437 [label="X[18] <= 1.247\ngini = 0.0\nsamples = 11999\nvalue = [11998, 1]\nclass = y[0]"] ;
436 -> 437 ;
438 [label="gini = 0.0\nsamples = 8443\nvalue = [8443, 0]\nclass = y[0]"] ;
437 -> 438 ;
439 [label="X[19] <= 1.149\ngini = 0.001\nsamples = 3556\nvalue = [3555, 1]\nclass = y[0]"] ;
437 -> 439 ;
440 [label="X[23] <= -0.838\ngini = 0.003\nsamples = 698\nvalue = [697, 1]\nclass = y[0]"] ;
439 -> 440 ;
441 [label="gini = 0.0\nsamples = 559\nvalue = [559, 0]\nclass = y[0]"] ;
440 -> 441 ;
442 [label="X[0] <= -0.202\ngini = 0.014\nsamples = 139\nvalue = [138, 1]\nclass = y[0]"] ;
440 -> 442 ;
443 [label="X[0] <= -0.213\ngini = 0.056\nsamples = 35\nvalue = [34, 1]\nclass = y[0]"] ;
442 -> 443 ;
444 [label="gini = 0.0\nsamples = 34\nvalue = [34, 0]\nclass = y[0]"] ;
443 -> 444 ;
445 [label="gini = 0.0\nsamples = 1\nvalue = [0, 1]\nclass = y[1]"] ;
443 -> 445 ;
446 [label="gini = 0.0\nsamples = 104\nvalue = [104, 0]\nclass = y[0]"] ;
442 -> 446 ;
447 [label="gini = 0.0\nsamples = 2858\nvalue = [2858, 0]\nclass = y[0]"] ;
439 -> 447 ;
448 [label="X[0] <= 0.961\ngini = 0.002\nsamples = 886\nvalue = [885, 1]\nclass = y[0]"] ;
436 -> 448 ;
449 [label="X[4] <= 0.5\ngini = 0.245\nsamples = 7\nvalue = [6, 1]\nclass = y[0]"] ;
448 -> 449 ;
450 [label="gini = 0.0\nsamples = 1\nvalue = [0, 1]\nclass = y[1]"] ;
449 -> 450 ;
451 [label="gini = 0.0\nsamples = 6\nvalue = [6, 0]\nclass = y[0]"] ;
449 -> 451 ;
452 [label="gini = 0.0\nsamples = 879\nvalue = [879, 0]\nclass = y[0]"] ;
448 -> 452 ;
453 [label="X[0] <= -0.286\ngini = 0.003\nsamples = 1510\nvalue = [1508, 2]\nclass = y[0]"] ;
435 -> 453 ;
454 [label="X[0] <= -0.292\ngini = 0.022\nsamples = 88\nvalue = [87, 1]\nclass = y[0]"] ;
453 -> 454 ;
455 [label="gini = 0.0\nsamples = 86\nvalue = [86, 0]\nclass = y[0]"] ;
454 -> 455 ;
456 [label="X[16] <= 0.5\ngini = 0.5\nsamples = 2\nvalue = [1, 1]\nclass = y[0]"] ;
454 -> 456 ;
457 [label="gini = 0.0\nsamples = 1\nvalue = [1, 0]\nclass = y[0]"] ;
456 -> 457 ;
458 [label="gini = 0.0\nsamples = 1\nvalue = [0, 1]\nclass = y[1]"] ;
456 -> 458 ;
459 [label="X[20] <= 1.899\ngini = 0.001\nsamples = 1422\nvalue = [1421, 1]\nclass = y[0]"] ;
453 -> 459 ;
460 [label="gini = 0.0\nsamples = 1205\nvalue = [1205, 0]\nclass = y[0]"] ;
459 -> 460 ;
461 [label="X[26] <= 0.871\ngini = 0.009\nsamples = 217\nvalue = [216, 1]\nclass = y[0]"] ;
459 -> 461 ;
462 [label="gini = 0.0\nsamples = 177\nvalue = [177, 0]\nclass = y[0]"] ;
461 -> 462 ;
463 [label="X[18] <= 0.712\ngini = 0.049\nsamples = 40\nvalue = [39, 1]\nclass = y[0]"] ;
461 -> 463 ;
464 [label="X[0] <= 0.725\ngini = 0.18\nsamples = 10\nvalue = [9, 1]\nclass = y[0]"] ;
463 -> 464 ;
465 [label="gini = 0.0\nsamples = 6\nvalue = [6, 0]\nclass = y[0]"] ;
464 -> 465 ;
466 [label="X[0] <= 0.827\ngini = 0.375\nsamples = 4\nvalue = [3, 1]\nclass = y[0]"] ;
464 -> 466 ;
467 [label="gini = 0.0\nsamples = 1\nvalue = [0, 1]\nclass = y[1]"] ;
466 -> 467 ;
468 [label="gini = 0.0\nsamples = 3\nvalue = [3, 0]\nclass = y[0]"] ;
466 -> 468 ;
469 [label="gini = 0.0\nsamples = 30\nvalue = [30, 0]\nclass = y[0]"] ;
463 -> 469 ;
470 [label="X[19] <= 2.725\ngini = 0.02\nsamples = 98\nvalue = [97, 1]\nclass = y[0]"] ;
426 -> 470 ;
471 [label="gini = 0.0\nsamples = 91\nvalue = [91, 0]\nclass = y[0]"] ;
470 -> 471 ;
472 [label="X[0] <= 1.319\ngini = 0.245\nsamples = 7\nvalue = [6, 1]\nclass = y[0]"] ;
470 -> 472 ;
473 [label="gini = 0.0\nsamples = 5\nvalue = [5, 0]\nclass = y[0]"] ;
472 -> 473 ;
474 [label="X[0] <= 1.479\ngini = 0.5\nsamples = 2\nvalue = [1, 1]\nclass = y[0]"] ;
472 -> 474 ;
475 [label="gini = 0.0\nsamples = 1\nvalue = [0, 1]\nclass = y[1]"] ;
474 -> 475 ;
476 [label="gini = 0.0\nsamples = 1\nvalue = [1, 0]\nclass = y[0]"] ;
474 -> 476 ;
477 [label="X[18] <= 0.445\ngini = 0.022\nsamples = 361\nvalue = [357, 4]\nclass = y[0]"] ;
425 -> 477 ;
478 [label="X[27] <= 0.587\ngini = 0.355\nsamples = 13\nvalue = [10, 3]\nclass = y[0]"] ;
477 -> 478 ;
479 [label="X[11] <= 0.5\ngini = 0.278\nsamples = 12\nvalue = [10, 2]\nclass = y[0]"] ;
478 -> 479 ;
480 [label="gini = 0.0\nsamples = 7\nvalue = [7, 0]\nclass = y[0]"] ;
479 -> 480 ;
481 [label="X[4] <= 0.5\ngini = 0.48\nsamples = 5\nvalue = [3, 2]\nclass = y[0]"] ;
479 -> 481 ;
482 [label="gini = 0.0\nsamples = 2\nvalue = [2, 0]\nclass = y[0]"] ;
481 -> 482 ;
483 [label="X[13] <= 0.5\ngini = 0.444\nsamples = 3\nvalue = [1, 2]\nclass = y[1]"] ;
481 -> 483 ;
484 [label="gini = 0.0\nsamples = 1\nvalue = [1, 0]\nclass = y[0]"] ;
483 -> 484 ;
485 [label="gini = 0.0\nsamples = 2\nvalue = [0, 2]\nclass = y[1]"] ;
483 -> 485 ;
486 [label="gini = 0.0\nsamples = 1\nvalue = [0, 1]\nclass = y[1]"] ;
478 -> 486 ;
487 [label="X[0] <= 1.69\ngini = 0.006\nsamples = 348\nvalue = [347, 1]\nclass = y[0]"] ;
477 -> 487 ;
488 [label="X[14] <= 0.5\ngini = 0.5\nsamples = 2\nvalue = [1, 1]\nclass = y[0]"] ;
487 -> 488 ;
489 [label="gini = 0.0\nsamples = 1\nvalue = [1, 0]\nclass = y[0]"] ;
488 -> 489 ;
490 [label="gini = 0.0\nsamples = 1\nvalue = [0, 1]\nclass = y[1]"] ;
488 -> 490 ;
491 [label="gini = 0.0\nsamples = 346\nvalue = [346, 0]\nclass = y[0]"] ;
487 -> 491 ;
492 [label="X[18] <= 0.579\ngini = 0.245\nsamples = 7\nvalue = [6, 1]\nclass = y[0]"] ;
402 -> 492 ;
493 [label="gini = 0.0\nsamples = 1\nvalue = [0, 1]\nclass = y[1]"] ;
492 -> 493 ;
494 [label="gini = 0.0\nsamples = 6\nvalue = [6, 0]\nclass = y[0]"] ;
492 -> 494 ;
495 [label="X[19] <= -0.426\ngini = 0.36\nsamples = 1073\nvalue = [820, 253]\nclass = y[0]"] ;
237 -> 495 ;
496 [label="X[17] <= 0.5\ngini = 0.049\nsamples = 158\nvalue = [4, 154]\nclass = y[1]"] ;
495 -> 496 ;
497 [label="X[20] <= 1.899\ngini = 0.015\nsamples = 133\nvalue = [1, 132]\nclass = y[1]"] ;
496 -> 497 ;
498 [label="gini = 0.0\nsamples = 129\nvalue = [0, 129]\nclass = y[1]"] ;
497 -> 498 ;
499 [label="X[21] <= 0.066\ngini = 0.375\nsamples = 4\nvalue = [1, 3]\nclass = y[1]"] ;
497 -> 499 ;
500 [label="gini = 0.0\nsamples = 1\nvalue = [1, 0]\nclass = y[0]"] ;
499 -> 500 ;
501 [label="gini = 0.0\nsamples = 3\nvalue = [0, 3]\nclass = y[1]"] ;
499 -> 501 ;
502 [label="X[21] <= 1.731\ngini = 0.211\nsamples = 25\nvalue = [3, 22]\nclass = y[1]"] ;
496 -> 502 ;
503 [label="X[26] <= 0.871\ngini = 0.153\nsamples = 24\nvalue = [2, 22]\nclass = y[1]"] ;
502 -> 503 ;
504 [label="gini = 0.0\nsamples = 17\nvalue = [0, 17]\nclass = y[1]"] ;
503 -> 504 ;
505 [label="X[10] <= 0.5\ngini = 0.408\nsamples = 7\nvalue = [2, 5]\nclass = y[1]"] ;
503 -> 505 ;
506 [label="X[0] <= -0.221\ngini = 0.278\nsamples = 6\nvalue = [1, 5]\nclass = y[1]"] ;
505 -> 506 ;
507 [label="X[5] <= 0.5\ngini = 0.5\nsamples = 2\nvalue = [1, 1]\nclass = y[0]"] ;
506 -> 507 ;
508 [label="gini = 0.0\nsamples = 1\nvalue = [1, 0]\nclass = y[0]"] ;
507 -> 508 ;
509 [label="gini = 0.0\nsamples = 1\nvalue = [0, 1]\nclass = y[1]"] ;
507 -> 509 ;
510 [label="gini = 0.0\nsamples = 4\nvalue = [0, 4]\nclass = y[1]"] ;
506 -> 510 ;
511 [label="gini = 0.0\nsamples = 1\nvalue = [1, 0]\nclass = y[0]"] ;
505 -> 511 ;
512 [label="gini = 0.0\nsamples = 1\nvalue = [1, 0]\nclass = y[0]"] ;
502 -> 512 ;
513 [label="X[8] <= 0.5\ngini = 0.193\nsamples = 915\nvalue = [816, 99]\nclass = y[0]"] ;
495 -> 513 ;
514 [label="X[19] <= 0.361\ngini = 0.363\nsamples = 382\nvalue = [291, 91]\nclass = y[0]"] ;
513 -> 514 ;
515 [label="X[25] <= 0.125\ngini = 0.482\nsamples = 79\nvalue = [32, 47]\nclass = y[1]"] ;
514 -> 515 ;
516 [label="X[26] <= 1.692\ngini = 0.231\nsamples = 30\nvalue = [26, 4]\nclass = y[0]"] ;
515 -> 516 ;
517 [label="X[18] <= -0.09\ngini = 0.185\nsamples = 29\nvalue = [26, 3]\nclass = y[0]"] ;
516 -> 517 ;
518 [label="X[0] <= -0.503\ngini = 0.5\nsamples = 2\nvalue = [1, 1]\nclass = y[0]"] ;
517 -> 518 ;
519 [label="gini = 0.0\nsamples = 1\nvalue = [1, 0]\nclass = y[0]"] ;
518 -> 519 ;
520 [label="gini = 0.0\nsamples = 1\nvalue = [0, 1]\nclass = y[1]"] ;
518 -> 520 ;
521 [label="X[0] <= 0.691\ngini = 0.137\nsamples = 27\nvalue = [25, 2]\nclass = y[0]"] ;
517 -> 521 ;
522 [label="gini = 0.0\nsamples = 20\nvalue = [20, 0]\nclass = y[0]"] ;
521 -> 522 ;
523 [label="X[0] <= 0.908\ngini = 0.408\nsamples = 7\nvalue = [5, 2]\nclass = y[0]"] ;
521 -> 523 ;
524 [label="gini = 0.0\nsamples = 1\nvalue = [0, 1]\nclass = y[1]"] ;
523 -> 524 ;
525 [label="X[26] <= 0.049\ngini = 0.278\nsamples = 6\nvalue = [5, 1]\nclass = y[0]"] ;
523 -> 525 ;
526 [label="X[0] <= 1.148\ngini = 0.5\nsamples = 2\nvalue = [1, 1]\nclass = y[0]"] ;
525 -> 526 ;
527 [label="gini = 0.0\nsamples = 1\nvalue = [1, 0]\nclass = y[0]"] ;
526 -> 527 ;
528 [label="gini = 0.0\nsamples = 1\nvalue = [0, 1]\nclass = y[1]"] ;
526 -> 528 ;
529 [label="gini = 0.0\nsamples = 4\nvalue = [4, 0]\nclass = y[0]"] ;
525 -> 529 ;
530 [label="gini = 0.0\nsamples = 1\nvalue = [0, 1]\nclass = y[1]"] ;
516 -> 530 ;
531 [label="X[23] <= -0.313\ngini = 0.215\nsamples = 49\nvalue = [6, 43]\nclass = y[1]"] ;
515 -> 531 ;
532 [label="gini = 0.0\nsamples = 2\nvalue = [2, 0]\nclass = y[0]"] ;
531 -> 532 ;
533 [label="X[0] <= -0.647\ngini = 0.156\nsamples = 47\nvalue = [4, 43]\nclass = y[1]"] ;
531 -> 533 ;
534 [label="gini = 0.0\nsamples = 1\nvalue = [1, 0]\nclass = y[0]"] ;
533 -> 534 ;
535 [label="X[18] <= 0.177\ngini = 0.122\nsamples = 46\nvalue = [3, 43]\nclass = y[1]"] ;
533 -> 535 ;
536 [label="gini = 0.0\nsamples = 22\nvalue = [0, 22]\nclass = y[1]"] ;
535 -> 536 ;
537 [label="X[21] <= 0.066\ngini = 0.219\nsamples = 24\nvalue = [3, 21]\nclass = y[1]"] ;
535 -> 537 ;
538 [label="X[4] <= 0.5\ngini = 0.48\nsamples = 5\nvalue = [2, 3]\nclass = y[1]"] ;
537 -> 538 ;
539 [label="gini = 0.0\nsamples = 2\nvalue = [0, 2]\nclass = y[1]"] ;
538 -> 539 ;
540 [label="X[21] <= -0.766\ngini = 0.444\nsamples = 3\nvalue = [2, 1]\nclass = y[0]"] ;
538 -> 540 ;
541 [label="gini = 0.0\nsamples = 1\nvalue = [0, 1]\nclass = y[1]"] ;
540 -> 541 ;
542 [label="gini = 0.0\nsamples = 2\nvalue = [2, 0]\nclass = y[0]"] ;
540 -> 542 ;
543 [label="X[23] <= -0.051\ngini = 0.1\nsamples = 19\nvalue = [1, 18]\nclass = y[1]"] ;
537 -> 543 ;
544 [label="X[0] <= 0.495\ngini = 0.5\nsamples = 2\nvalue = [1, 1]\nclass = y[0]"] ;
543 -> 544 ;
545 [label="gini = 0.0\nsamples = 1\nvalue = [1, 0]\nclass = y[0]"] ;
544 -> 545 ;
546 [label="gini = 0.0\nsamples = 1\nvalue = [0, 1]\nclass = y[1]"] ;
544 -> 546 ;
547 [label="gini = 0.0\nsamples = 17\nvalue = [0, 17]\nclass = y[1]"] ;
543 -> 547 ;
548 [label="X[18] <= 0.98\ngini = 0.248\nsamples = 303\nvalue = [259, 44]\nclass = y[0]"] ;
514 -> 548 ;
549 [label="X[4] <= 0.5\ngini = 0.373\nsamples = 137\nvalue = [103, 34]\nclass = y[0]"] ;
548 -> 549 ;
550 [label="X[26] <= -0.772\ngini = 0.183\nsamples = 49\nvalue = [44, 5]\nclass = y[0]"] ;
549 -> 550 ;
551 [label="X[23] <= -0.051\ngini = 0.469\nsamples = 8\nvalue = [5, 3]\nclass = y[0]"] ;
550 -> 551 ;
552 [label="gini = 0.0\nsamples = 3\nvalue = [3, 0]\nclass = y[0]"] ;
551 -> 552 ;
553 [label="X[19] <= 1.149\ngini = 0.48\nsamples = 5\nvalue = [2, 3]\nclass = y[1]"] ;
551 -> 553 ;
554 [label="X[0] <= 0.828\ngini = 0.444\nsamples = 3\nvalue = [2, 1]\nclass = y[0]"] ;
553 -> 554 ;
555 [label="gini = 0.0\nsamples = 1\nvalue = [0, 1]\nclass = y[1]"] ;
554 -> 555 ;
556 [label="gini = 0.0\nsamples = 2\nvalue = [2, 0]\nclass = y[0]"] ;
554 -> 556 ;
557 [label="gini = 0.0\nsamples = 2\nvalue = [0, 2]\nclass = y[1]"] ;
553 -> 557 ;
558 [label="X[26] <= 1.692\ngini = 0.093\nsamples = 41\nvalue = [39, 2]\nclass = y[0]"] ;
550 -> 558 ;
559 [label="X[22] <= 0.554\ngini = 0.051\nsamples = 38\nvalue = [37, 1]\nclass = y[0]"] ;
558 -> 559 ;
560 [label="gini = 0.0\nsamples = 32\nvalue = [32, 0]\nclass = y[0]"] ;
559 -> 560 ;
561 [label="X[2] <= 0.5\ngini = 0.278\nsamples = 6\nvalue = [5, 1]\nclass = y[0]"] ;
559 -> 561 ;
562 [label="gini = 0.0\nsamples = 5\nvalue = [5, 0]\nclass = y[0]"] ;
561 -> 562 ;
563 [label="gini = 0.0\nsamples = 1\nvalue = [0, 1]\nclass = y[1]"] ;
561 -> 563 ;
564 [label="X[2] <= 0.5\ngini = 0.444\nsamples = 3\nvalue = [2, 1]\nclass = y[0]"] ;
558 -> 564 ;
565 [label="gini = 0.0\nsamples = 2\nvalue = [2, 0]\nclass = y[0]"] ;
564 -> 565 ;
566 [label="gini = 0.0\nsamples = 1\nvalue = [0, 1]\nclass = y[1]"] ;
564 -> 566 ;
567 [label="X[18] <= 0.445\ngini = 0.442\nsamples = 88\nvalue = [59, 29]\nclass = y[0]"] ;
549 -> 567 ;
568 [label="X[10] <= 0.5\ngini = 0.42\nsamples = 10\nvalue = [3, 7]\nclass = y[1]"] ;
567 -> 568 ;
569 [label="X[13] <= 0.5\ngini = 0.5\nsamples = 6\nvalue = [3, 3]\nclass = y[0]"] ;
568 -> 569 ;
570 [label="gini = 0.0\nsamples = 2\nvalue = [0, 2]\nclass = y[1]"] ;
569 -> 570 ;
571 [label="X[25] <= 1.748\ngini = 0.375\nsamples = 4\nvalue = [3, 1]\nclass = y[0]"] ;
569 -> 571 ;
572 [label="gini = 0.0\nsamples = 3\nvalue = [3, 0]\nclass = y[0]"] ;
571 -> 572 ;
573 [label="gini = 0.0\nsamples = 1\nvalue = [0, 1]\nclass = y[1]"] ;
571 -> 573 ;
574 [label="gini = 0.0\nsamples = 4\nvalue = [0, 4]\nclass = y[1]"] ;
568 -> 574 ;
575 [label="X[0] <= 0.343\ngini = 0.405\nsamples = 78\nvalue = [56, 22]\nclass = y[0]"] ;
567 -> 575 ;
576 [label="gini = 0.0\nsamples = 15\nvalue = [15, 0]\nclass = y[0]"] ;
575 -> 576 ;
577 [label="X[27] <= 0.587\ngini = 0.455\nsamples = 63\nvalue = [41, 22]\nclass = y[0]"] ;
575 -> 577 ;
578 [label="X[0] <= 2.769\ngini = 0.48\nsamples = 55\nvalue = [33, 22]\nclass = y[0]"] ;
577 -> 578 ;
579 [label="X[0] <= 1.058\ngini = 0.464\nsamples = 52\nvalue = [33, 19]\nclass = y[0]"] ;
578 -> 579 ;
580 [label="X[25] <= 0.125\ngini = 0.497\nsamples = 24\nvalue = [11, 13]\nclass = y[1]"] ;
579 -> 580 ;
581 [label="gini = 0.0\nsamples = 6\nvalue = [6, 0]\nclass = y[0]"] ;
580 -> 581 ;
582 [label="X[23] <= -0.313\ngini = 0.401\nsamples = 18\nvalue = [5, 13]\nclass = y[1]"] ;
580 -> 582 ;
583 [label="gini = 0.0\nsamples = 3\nvalue = [3, 0]\nclass = y[0]"] ;
582 -> 583 ;
584 [label="X[1] <= 0.5\ngini = 0.231\nsamples = 15\nvalue = [2, 13]\nclass = y[1]"] ;
582 -> 584 ;
585 [label="X[23] <= -0.051\ngini = 0.5\nsamples = 4\nvalue = [2, 2]\nclass = y[0]"] ;
584 -> 585 ;
586 [label="gini = 0.0\nsamples = 2\nvalue = [0, 2]\nclass = y[1]"] ;
585 -> 586 ;
587 [label="gini = 0.0\nsamples = 2\nvalue = [2, 0]\nclass = y[0]"] ;
585 -> 587 ;
588 [label="gini = 0.0\nsamples = 11\nvalue = [0, 11]\nclass = y[1]"] ;
584 -> 588 ;
589 [label="X[20] <= 1.899\ngini = 0.337\nsamples = 28\nvalue = [22, 6]\nclass = y[0]"] ;
579 -> 589 ;
590 [label="X[10] <= 0.5\ngini = 0.095\nsamples = 20\nvalue = [19, 1]\nclass = y[0]"] ;
589 -> 590 ;
591 [label="gini = 0.0\nsamples = 14\nvalue = [14, 0]\nclass = y[0]"] ;
590 -> 591 ;
592 [label="X[25] <= 0.125\ngini = 0.278\nsamples = 6\nvalue = [5, 1]\nclass = y[0]"] ;
590 -> 592 ;
593 [label="gini = 0.0\nsamples = 5\nvalue = [5, 0]\nclass = y[0]"] ;
592 -> 593 ;
594 [label="gini = 0.0\nsamples = 1\nvalue = [0, 1]\nclass = y[1]"] ;
592 -> 594 ;
595 [label="X[10] <= 0.5\ngini = 0.469\nsamples = 8\nvalue = [3, 5]\nclass = y[1]"] ;
589 -> 595 ;
596 [label="gini = 0.0\nsamples = 2\nvalue = [2, 0]\nclass = y[0]"] ;
595 -> 596 ;
597 [label="X[23] <= -0.313\ngini = 0.278\nsamples = 6\nvalue = [1, 5]\nclass = y[1]"] ;
595 -> 597 ;
598 [label="gini = 0.0\nsamples = 1\nvalue = [1, 0]\nclass = y[0]"] ;
597 -> 598 ;
599 [label="gini = 0.0\nsamples = 5\nvalue = [0, 5]\nclass = y[1]"] ;
597 -> 599 ;
600 [label="gini = 0.0\nsamples = 3\nvalue = [0, 3]\nclass = y[1]"] ;
578 -> 600 ;
601 [label="gini = 0.0\nsamples = 8\nvalue = [8, 0]\nclass = y[0]"] ;
577 -> 601 ;
602 [label="X[19] <= 6.663\ngini = 0.113\nsamples = 166\nvalue = [156, 10]\nclass = y[0]"] ;
548 -> 602 ;
603 [label="X[22] <= 0.554\ngini = 0.103\nsamples = 165\nvalue = [156, 9]\nclass = y[0]"] ;
602 -> 603 ;
604 [label="X[19] <= 1.149\ngini = 0.053\nsamples = 111\nvalue = [108, 3]\nclass = y[0]"] ;
603 -> 604 ;
605 [label="X[20] <= 0.201\ngini = 0.18\nsamples = 20\nvalue = [18, 2]\nclass = y[0]"] ;
604 -> 605 ;
606 [label="X[23] <= -0.051\ngini = 0.408\nsamples = 7\nvalue = [5, 2]\nclass = y[0]"] ;
605 -> 606 ;
607 [label="X[21] <= 0.898\ngini = 0.278\nsamples = 6\nvalue = [5, 1]\nclass = y[0]"] ;
606 -> 607 ;
608 [label="X[27] <= 0.587\ngini = 0.5\nsamples = 2\nvalue = [1, 1]\nclass = y[0]"] ;
607 -> 608 ;
609 [label="gini = 0.0\nsamples = 1\nvalue = [0, 1]\nclass = y[1]"] ;
608 -> 609 ;
610 [label="gini = 0.0\nsamples = 1\nvalue = [1, 0]\nclass = y[0]"] ;
608 -> 610 ;
611 [label="gini = 0.0\nsamples = 4\nvalue = [4, 0]\nclass = y[0]"] ;
607 -> 611 ;
612 [label="gini = 0.0\nsamples = 1\nvalue = [0, 1]\nclass = y[1]"] ;
606 -> 612 ;
613 [label="gini = 0.0\nsamples = 13\nvalue = [13, 0]\nclass = y[0]"] ;
605 -> 613 ;
614 [label="X[19] <= 2.725\ngini = 0.022\nsamples = 91\nvalue = [90, 1]\nclass = y[0]"] ;
604 -> 614 ;
615 [label="gini = 0.0\nsamples = 76\nvalue = [76, 0]\nclass = y[0]"] ;
614 -> 615 ;
616 [label="X[0] <= 1.676\ngini = 0.124\nsamples = 15\nvalue = [14, 1]\nclass = y[0]"] ;
614 -> 616 ;
617 [label="X[25] <= 0.125\ngini = 0.444\nsamples = 3\nvalue = [2, 1]\nclass = y[0]"] ;
616 -> 617 ;
618 [label="gini = 0.0\nsamples = 1\nvalue = [0, 1]\nclass = y[1]"] ;
617 -> 618 ;
619 [label="gini = 0.0\nsamples = 2\nvalue = [2, 0]\nclass = y[0]"] ;
617 -> 619 ;
620 [label="gini = 0.0\nsamples = 12\nvalue = [12, 0]\nclass = y[0]"] ;
616 -> 620 ;
621 [label="X[0] <= 2.609\ngini = 0.198\nsamples = 54\nvalue = [48, 6]\nclass = y[0]"] ;
603 -> 621 ;
622 [label="X[9] <= 0.5\ngini = 0.147\nsamples = 50\nvalue = [46, 4]\nclass = y[0]"] ;
621 -> 622 ;
623 [label="X[1] <= 0.5\ngini = 0.117\nsamples = 48\nvalue = [45, 3]\nclass = y[0]"] ;
622 -> 623 ;
624 [label="X[25] <= 0.125\ngini = 0.227\nsamples = 23\nvalue = [20, 3]\nclass = y[0]"] ;
623 -> 624 ;
625 [label="gini = 0.0\nsamples = 12\nvalue = [12, 0]\nclass = y[0]"] ;
624 -> 625 ;
626 [label="X[0] <= 1.096\ngini = 0.397\nsamples = 11\nvalue = [8, 3]\nclass = y[0]"] ;
624 -> 626 ;
627 [label="X[11] <= 0.5\ngini = 0.48\nsamples = 5\nvalue = [2, 3]\nclass = y[1]"] ;
626 -> 627 ;
628 [label="gini = 0.0\nsamples = 3\nvalue = [0, 3]\nclass = y[1]"] ;
627 -> 628 ;
629 [label="gini = 0.0\nsamples = 2\nvalue = [2, 0]\nclass = y[0]"] ;
627 -> 629 ;
630 [label="gini = 0.0\nsamples = 6\nvalue = [6, 0]\nclass = y[0]"] ;
626 -> 630 ;
631 [label="gini = 0.0\nsamples = 25\nvalue = [25, 0]\nclass = y[0]"] ;
623 -> 631 ;
632 [label="X[14] <= 0.5\ngini = 0.5\nsamples = 2\nvalue = [1, 1]\nclass = y[0]"] ;
622 -> 632 ;
633 [label="gini = 0.0\nsamples = 1\nvalue = [0, 1]\nclass = y[1]"] ;
632 -> 633 ;
634 [label="gini = 0.0\nsamples = 1\nvalue = [1, 0]\nclass = y[0]"] ;
632 -> 634 ;
635 [label="X[21] <= 3.395\ngini = 0.5\nsamples = 4\nvalue = [2, 2]\nclass = y[0]"] ;
621 -> 635 ;
636 [label="gini = 0.0\nsamples = 2\nvalue = [0, 2]\nclass = y[1]"] ;
635 -> 636 ;
637 [label="gini = 0.0\nsamples = 2\nvalue = [2, 0]\nclass = y[0]"] ;
635 -> 637 ;
638 [label="gini = 0.0\nsamples = 1\nvalue = [0, 1]\nclass = y[1]"] ;
602 -> 638 ;
639 [label="X[18] <= 0.445\ngini = 0.03\nsamples = 533\nvalue = [525, 8]\nclass = y[0]"] ;
513 -> 639 ;
640 [label="X[0] <= -0.179\ngini = 0.159\nsamples = 69\nvalue = [63, 6]\nclass = y[0]"] ;
639 -> 640 ;
641 [label="X[20] <= 0.201\ngini = 0.48\nsamples = 5\nvalue = [2, 3]\nclass = y[1]"] ;
640 -> 641 ;
642 [label="gini = 0.0\nsamples = 3\nvalue = [0, 3]\nclass = y[1]"] ;
641 -> 642 ;
643 [label="gini = 0.0\nsamples = 2\nvalue = [2, 0]\nclass = y[0]"] ;
641 -> 643 ;
644 [label="X[25] <= 1.748\ngini = 0.089\nsamples = 64\nvalue = [61, 3]\nclass = y[0]"] ;
640 -> 644 ;
645 [label="X[0] <= 1.56\ngini = 0.061\nsamples = 63\nvalue = [61, 2]\nclass = y[0]"] ;
644 -> 645 ;
646 [label="X[21] <= -0.766\ngini = 0.033\nsamples = 59\nvalue = [58, 1]\nclass = y[0]"] ;
645 -> 646 ;
647 [label="X[26] <= 0.049\ngini = 0.219\nsamples = 8\nvalue = [7, 1]\nclass = y[0]"] ;
646 -> 647 ;
648 [label="gini = 0.0\nsamples = 1\nvalue = [0, 1]\nclass = y[1]"] ;
647 -> 648 ;
649 [label="gini = 0.0\nsamples = 7\nvalue = [7, 0]\nclass = y[0]"] ;
647 -> 649 ;
650 [label="gini = 0.0\nsamples = 51\nvalue = [51, 0]\nclass = y[0]"] ;
646 -> 650 ;
651 [label="X[0] <= 1.606\ngini = 0.375\nsamples = 4\nvalue = [3, 1]\nclass = y[0]"] ;
645 -> 651 ;
652 [label="gini = 0.0\nsamples = 1\nvalue = [0, 1]\nclass = y[1]"] ;
651 -> 652 ;
653 [label="gini = 0.0\nsamples = 3\nvalue = [3, 0]\nclass = y[0]"] ;
651 -> 653 ;
654 [label="gini = 0.0\nsamples = 1\nvalue = [0, 1]\nclass = y[1]"] ;
644 -> 654 ;
655 [label="X[24] <= 1.185\ngini = 0.009\nsamples = 464\nvalue = [462, 2]\nclass = y[0]"] ;
639 -> 655 ;
656 [label="X[24] <= 0.39\ngini = 0.004\nsamples = 455\nvalue = [454, 1]\nclass = y[0]"] ;
655 -> 656 ;
657 [label="gini = 0.0\nsamples = 402\nvalue = [402, 0]\nclass = y[0]"] ;
656 -> 657 ;
658 [label="X[18] <= 0.712\ngini = 0.037\nsamples = 53\nvalue = [52, 1]\nclass = y[0]"] ;
656 -> 658 ;
659 [label="X[19] <= 1.149\ngini = 0.18\nsamples = 10\nvalue = [9, 1]\nclass = y[0]"] ;
658 -> 659 ;
660 [label="gini = 0.0\nsamples = 9\nvalue = [9, 0]\nclass = y[0]"] ;
659 -> 660 ;
661 [label="gini = 0.0\nsamples = 1\nvalue = [0, 1]\nclass = y[1]"] ;
659 -> 661 ;
662 [label="gini = 0.0\nsamples = 43\nvalue = [43, 0]\nclass = y[0]"] ;
658 -> 662 ;
663 [label="X[0] <= 0.899\ngini = 0.198\nsamples = 9\nvalue = [8, 1]\nclass = y[0]"] ;
655 -> 663 ;
664 [label="gini = 0.0\nsamples = 1\nvalue = [0, 1]\nclass = y[1]"] ;
663 -> 664 ;
665 [label="gini = 0.0\nsamples = 8\nvalue = [8, 0]\nclass = y[0]"] ;
663 -> 665 ;
666 [label="X[18] <= 0.445\ngini = 0.151\nsamples = 19004\nvalue = [1562, 17442]\nclass = y[1]"] ;
0 -> 666 [labeldistance=2.5, labelangle=-45, headlabel="False"] ;
667 [label="X[18] <= 0.177\ngini = 0.039\nsamples = 16947\nvalue = [338, 16609]\nclass = y[1]"] ;
666 -> 667 ;
668 [label="X[19] <= -0.426\ngini = 0.01\nsamples = 15953\nvalue = [83, 15870]\nclass = y[1]"] ;
667 -> 668 ;
669 [label="X[20] <= 0.201\ngini = 0.001\nsamples = 15005\nvalue = [9, 14996]\nclass = y[1]"] ;
668 -> 669 ;
670 [label="X[12] <= 0.5\ngini = 0.0\nsamples = 13534\nvalue = [3, 13531]\nclass = y[1]"] ;
669 -> 670 ;
671 [label="X[24] <= -0.404\ngini = 0.0\nsamples = 13403\nvalue = [2, 13401]\nclass = y[1]"] ;
670 -> 671 ;
672 [label="X[0] <= -0.123\ngini = 0.01\nsamples = 201\nvalue = [1, 200]\nclass = y[1]"] ;
671 -> 672 ;
673 [label="gini = 0.0\nsamples = 170\nvalue = [0, 170]\nclass = y[1]"] ;
672 -> 673 ;
674 [label="X[0] <= -0.09\ngini = 0.062\nsamples = 31\nvalue = [1, 30]\nclass = y[1]"] ;
672 -> 674 ;
675 [label="gini = 0.0\nsamples = 1\nvalue = [1, 0]\nclass = y[0]"] ;
674 -> 675 ;
676 [label="gini = 0.0\nsamples = 30\nvalue = [0, 30]\nclass = y[1]"] ;
674 -> 676 ;
677 [label="X[23] <= 0.474\ngini = 0.0\nsamples = 13202\nvalue = [1, 13201]\nclass = y[1]"] ;
671 -> 677 ;
678 [label="X[18] <= -0.357\ngini = 0.002\nsamples = 1198\nvalue = [1, 1197]\nclass = y[1]"] ;
677 -> 678 ;
679 [label="gini = 0.0\nsamples = 1004\nvalue = [0, 1004]\nclass = y[1]"] ;
678 -> 679 ;
680 [label="X[0] <= -0.265\ngini = 0.01\nsamples = 194\nvalue = [1, 193]\nclass = y[1]"] ;
678 -> 680 ;
681 [label="X[0] <= -0.277\ngini = 0.087\nsamples = 22\nvalue = [1, 21]\nclass = y[1]"] ;
680 -> 681 ;
682 [label="gini = 0.0\nsamples = 20\nvalue = [0, 20]\nclass = y[1]"] ;
681 -> 682 ;
683 [label="X[25] <= 0.125\ngini = 0.5\nsamples = 2\nvalue = [1, 1]\nclass = y[0]"] ;
681 -> 683 ;
684 [label="gini = 0.0\nsamples = 1\nvalue = [1, 0]\nclass = y[0]"] ;
683 -> 684 ;
685 [label="gini = 0.0\nsamples = 1\nvalue = [0, 1]\nclass = y[1]"] ;
683 -> 685 ;
686 [label="gini = 0.0\nsamples = 172\nvalue = [0, 172]\nclass = y[1]"] ;
680 -> 686 ;
687 [label="gini = 0.0\nsamples = 12004\nvalue = [0, 12004]\nclass = y[1]"] ;
677 -> 687 ;
688 [label="X[0] <= -0.119\ngini = 0.015\nsamples = 131\nvalue = [1, 130]\nclass = y[1]"] ;
670 -> 688 ;
689 [label="gini = 0.0\nsamples = 127\nvalue = [0, 127]\nclass = y[1]"] ;
688 -> 689 ;
690 [label="X[0] <= -0.058\ngini = 0.375\nsamples = 4\nvalue = [1, 3]\nclass = y[1]"] ;
688 -> 690 ;
691 [label="gini = 0.0\nsamples = 1\nvalue = [1, 0]\nclass = y[0]"] ;
690 -> 691 ;
692 [label="gini = 0.0\nsamples = 3\nvalue = [0, 3]\nclass = y[1]"] ;
690 -> 692 ;
693 [label="X[8] <= 0.5\ngini = 0.008\nsamples = 1471\nvalue = [6, 1465]\nclass = y[1]"] ;
669 -> 693 ;
694 [label="X[17] <= 0.5\ngini = 0.5\nsamples = 2\nvalue = [1, 1]\nclass = y[0]"] ;
693 -> 694 ;
695 [label="gini = 0.0\nsamples = 1\nvalue = [0, 1]\nclass = y[1]"] ;
694 -> 695 ;
696 [label="gini = 0.0\nsamples = 1\nvalue = [1, 0]\nclass = y[0]"] ;
694 -> 696 ;
697 [label="X[23] <= 0.474\ngini = 0.007\nsamples = 1469\nvalue = [5, 1464]\nclass = y[1]"] ;
693 -> 697 ;
698 [label="X[10] <= 0.5\ngini = 0.044\nsamples = 133\nvalue = [3, 130]\nclass = y[1]"] ;
697 -> 698 ;
699 [label="X[24] <= 1.185\ngini = 0.291\nsamples = 17\nvalue = [3, 14]\nclass = y[1]"] ;
698 -> 699 ;
700 [label="X[18] <= -0.892\ngini = 0.219\nsamples = 16\nvalue = [2, 14]\nclass = y[1]"] ;
699 -> 700 ;
701 [label="gini = 0.0\nsamples = 1\nvalue = [1, 0]\nclass = y[0]"] ;
700 -> 701 ;
702 [label="X[0] <= 1.11\ngini = 0.124\nsamples = 15\nvalue = [1, 14]\nclass = y[1]"] ;
700 -> 702 ;
703 [label="gini = 0.0\nsamples = 10\nvalue = [0, 10]\nclass = y[1]"] ;
702 -> 703 ;
704 [label="X[0] <= 1.243\ngini = 0.32\nsamples = 5\nvalue = [1, 4]\nclass = y[1]"] ;
702 -> 704 ;
705 [label="gini = 0.0\nsamples = 1\nvalue = [1, 0]\nclass = y[0]"] ;
704 -> 705 ;
706 [label="gini = 0.0\nsamples = 4\nvalue = [0, 4]\nclass = y[1]"] ;
704 -> 706 ;
707 [label="gini = 0.0\nsamples = 1\nvalue = [1, 0]\nclass = y[0]"] ;
699 -> 707 ;
708 [label="gini = 0.0\nsamples = 116\nvalue = [0, 116]\nclass = y[1]"] ;
698 -> 708 ;
709 [label="X[23] <= 0.737\ngini = 0.003\nsamples = 1336\nvalue = [2, 1334]\nclass = y[1]"] ;
697 -> 709 ;
710 [label="X[24] <= 1.979\ngini = 0.017\nsamples = 230\nvalue = [2, 228]\nclass = y[1]"] ;
709 -> 710 ;
711 [label="X[24] <= 1.185\ngini = 0.009\nsamples = 228\nvalue = [1, 227]\nclass = y[1]"] ;
710 -> 711 ;
712 [label="gini = 0.0\nsamples = 218\nvalue = [0, 218]\nclass = y[1]"] ;
711 -> 712 ;
713 [label="X[18] <= -0.09\ngini = 0.18\nsamples = 10\nvalue = [1, 9]\nclass = y[1]"] ;
711 -> 713 ;
714 [label="gini = 0.0\nsamples = 8\nvalue = [0, 8]\nclass = y[1]"] ;
713 -> 714 ;
715 [label="X[4] <= 0.5\ngini = 0.5\nsamples = 2\nvalue = [1, 1]\nclass = y[0]"] ;
713 -> 715 ;
716 [label="gini = 0.0\nsamples = 1\nvalue = [1, 0]\nclass = y[0]"] ;
715 -> 716 ;
717 [label="gini = 0.0\nsamples = 1\nvalue = [0, 1]\nclass = y[1]"] ;
715 -> 717 ;
718 [label="X[20] <= 1.899\ngini = 0.5\nsamples = 2\nvalue = [1, 1]\nclass = y[0]"] ;
710 -> 718 ;
719 [label="gini = 0.0\nsamples = 1\nvalue = [1, 0]\nclass = y[0]"] ;
718 -> 719 ;
720 [label="gini = 0.0\nsamples = 1\nvalue = [0, 1]\nclass = y[1]"] ;
718 -> 720 ;
721 [label="gini = 0.0\nsamples = 1106\nvalue = [0, 1106]\nclass = y[1]"] ;
709 -> 721 ;
722 [label="X[8] <= 0.5\ngini = 0.144\nsamples = 948\nvalue = [74, 874]\nclass = y[1]"] ;
668 -> 722 ;
723 [label="X[24] <= -0.404\ngini = 0.037\nsamples = 580\nvalue = [11, 569]\nclass = y[1]"] ;
722 -> 723 ;
724 [label="X[21] <= -0.766\ngini = 0.245\nsamples = 7\nvalue = [6, 1]\nclass = y[0]"] ;
723 -> 724 ;
725 [label="gini = 0.0\nsamples = 1\nvalue = [0, 1]\nclass = y[1]"] ;
724 -> 725 ;
726 [label="gini = 0.0\nsamples = 6\nvalue = [6, 0]\nclass = y[0]"] ;
724 -> 726 ;
727 [label="X[19] <= 0.361\ngini = 0.017\nsamples = 573\nvalue = [5, 568]\nclass = y[1]"] ;
723 -> 727 ;
728 [label="X[20] <= 0.201\ngini = 0.009\nsamples = 464\nvalue = [2, 462]\nclass = y[1]"] ;
727 -> 728 ;
729 [label="gini = 0.0\nsamples = 319\nvalue = [0, 319]\nclass = y[1]"] ;
728 -> 729 ;
730 [label="X[10] <= 0.5\ngini = 0.027\nsamples = 145\nvalue = [2, 143]\nclass = y[1]"] ;
728 -> 730 ;
731 [label="X[0] <= 0.513\ngini = 0.108\nsamples = 35\nvalue = [2, 33]\nclass = y[1]"] ;
730 -> 731 ;
732 [label="gini = 0.0\nsamples = 1\nvalue = [1, 0]\nclass = y[0]"] ;
731 -> 732 ;
733 [label="X[0] <= 0.983\ngini = 0.057\nsamples = 34\nvalue = [1, 33]\nclass = y[1]"] ;
731 -> 733 ;
734 [label="X[0] <= 0.964\ngini = 0.245\nsamples = 7\nvalue = [1, 6]\nclass = y[1]"] ;
733 -> 734 ;
735 [label="gini = 0.0\nsamples = 6\nvalue = [0, 6]\nclass = y[1]"] ;
734 -> 735 ;
736 [label="gini = 0.0\nsamples = 1\nvalue = [1, 0]\nclass = y[0]"] ;
734 -> 736 ;
737 [label="gini = 0.0\nsamples = 27\nvalue = [0, 27]\nclass = y[1]"] ;
733 -> 737 ;
738 [label="gini = 0.0\nsamples = 110\nvalue = [0, 110]\nclass = y[1]"] ;
730 -> 738 ;
739 [label="X[27] <= 0.587\ngini = 0.054\nsamples = 109\nvalue = [3, 106]\nclass = y[1]"] ;
727 -> 739 ;
740 [label="gini = 0.0\nsamples = 87\nvalue = [0, 87]\nclass = y[1]"] ;
739 -> 740 ;
741 [label="X[25] <= 0.125\ngini = 0.236\nsamples = 22\nvalue = [3, 19]\nclass = y[1]"] ;
739 -> 741 ;
742 [label="X[20] <= 3.598\ngini = 0.5\nsamples = 4\nvalue = [2, 2]\nclass = y[0]"] ;
741 -> 742 ;
743 [label="X[4] <= 0.5\ngini = 0.444\nsamples = 3\nvalue = [2, 1]\nclass = y[0]"] ;
742 -> 743 ;
744 [label="gini = 0.0\nsamples = 2\nvalue = [2, 0]\nclass = y[0]"] ;
743 -> 744 ;
745 [label="gini = 0.0\nsamples = 1\nvalue = [0, 1]\nclass = y[1]"] ;
743 -> 745 ;
746 [label="gini = 0.0\nsamples = 1\nvalue = [0, 1]\nclass = y[1]"] ;
742 -> 746 ;
747 [label="X[25] <= 1.748\ngini = 0.105\nsamples = 18\nvalue = [1, 17]\nclass = y[1]"] ;
741 -> 747 ;
748 [label="gini = 0.0\nsamples = 12\nvalue = [0, 12]\nclass = y[1]"] ;
747 -> 748 ;
749 [label="X[2] <= 0.5\ngini = 0.278\nsamples = 6\nvalue = [1, 5]\nclass = y[1]"] ;
747 -> 749 ;
750 [label="gini = 0.0\nsamples = 4\nvalue = [0, 4]\nclass = y[1]"] ;
749 -> 750 ;
751 [label="X[18] <= -0.09\ngini = 0.5\nsamples = 2\nvalue = [1, 1]\nclass = y[0]"] ;
749 -> 751 ;
752 [label="gini = 0.0\nsamples = 1\nvalue = [1, 0]\nclass = y[0]"] ;
751 -> 752 ;
753 [label="gini = 0.0\nsamples = 1\nvalue = [0, 1]\nclass = y[1]"] ;
751 -> 753 ;
754 [label="X[24] <= 0.39\ngini = 0.284\nsamples = 368\nvalue = [63, 305]\nclass = y[1]"] ;
722 -> 754 ;
755 [label="X[20] <= 0.201\ngini = 0.497\nsamples = 67\nvalue = [31, 36]\nclass = y[1]"] ;
754 -> 755 ;
756 [label="X[25] <= 1.748\ngini = 0.264\nsamples = 32\nvalue = [5, 27]\nclass = y[1]"] ;
755 -> 756 ;
757 [label="X[0] <= 0.697\ngini = 0.128\nsamples = 29\nvalue = [2, 27]\nclass = y[1]"] ;
756 -> 757 ;
758 [label="gini = 0.0\nsamples = 22\nvalue = [0, 22]\nclass = y[1]"] ;
757 -> 758 ;
759 [label="X[0] <= 0.84\ngini = 0.408\nsamples = 7\nvalue = [2, 5]\nclass = y[1]"] ;
757 -> 759 ;
760 [label="gini = 0.0\nsamples = 2\nvalue = [2, 0]\nclass = y[0]"] ;
759 -> 760 ;
761 [label="gini = 0.0\nsamples = 5\nvalue = [0, 5]\nclass = y[1]"] ;
759 -> 761 ;
762 [label="gini = 0.0\nsamples = 3\nvalue = [3, 0]\nclass = y[0]"] ;
756 -> 762 ;
763 [label="X[4] <= 0.5\ngini = 0.382\nsamples = 35\nvalue = [26, 9]\nclass = y[0]"] ;
755 -> 763 ;
764 [label="X[23] <= 0.737\ngini = 0.252\nsamples = 27\nvalue = [23, 4]\nclass = y[0]"] ;
763 -> 764 ;
765 [label="X[22] <= 0.554\ngini = 0.095\nsamples = 20\nvalue = [19, 1]\nclass = y[0]"] ;
764 -> 765 ;
766 [label="gini = 0.0\nsamples = 18\nvalue = [18, 0]\nclass = y[0]"] ;
765 -> 766 ;
767 [label="X[14] <= 0.5\ngini = 0.5\nsamples = 2\nvalue = [1, 1]\nclass = y[0]"] ;
765 -> 767 ;
768 [label="gini = 0.0\nsamples = 1\nvalue = [1, 0]\nclass = y[0]"] ;
767 -> 768 ;
769 [label="gini = 0.0\nsamples = 1\nvalue = [0, 1]\nclass = y[1]"] ;
767 -> 769 ;
770 [label="X[18] <= -0.09\ngini = 0.49\nsamples = 7\nvalue = [4, 3]\nclass = y[0]"] ;
764 -> 770 ;
771 [label="gini = 0.0\nsamples = 3\nvalue = [3, 0]\nclass = y[0]"] ;
770 -> 771 ;
772 [label="X[13] <= 0.5\ngini = 0.375\nsamples = 4\nvalue = [1, 3]\nclass = y[1]"] ;
770 -> 772 ;
773 [label="gini = 0.0\nsamples = 2\nvalue = [0, 2]\nclass = y[1]"] ;
772 -> 773 ;
774 [label="X[21] <= 0.898\ngini = 0.5\nsamples = 2\nvalue = [1, 1]\nclass = y[0]"] ;
772 -> 774 ;
775 [label="gini = 0.0\nsamples = 1\nvalue = [1, 0]\nclass = y[0]"] ;
774 -> 775 ;
776 [label="gini = 0.0\nsamples = 1\nvalue = [0, 1]\nclass = y[1]"] ;
774 -> 776 ;
777 [label="X[25] <= 0.125\ngini = 0.469\nsamples = 8\nvalue = [3, 5]\nclass = y[1]"] ;
763 -> 777 ;
778 [label="gini = 0.0\nsamples = 4\nvalue = [0, 4]\nclass = y[1]"] ;
777 -> 778 ;
779 [label="X[0] <= 0.613\ngini = 0.375\nsamples = 4\nvalue = [3, 1]\nclass = y[0]"] ;
777 -> 779 ;
780 [label="gini = 0.0\nsamples = 1\nvalue = [0, 1]\nclass = y[1]"] ;
779 -> 780 ;
781 [label="gini = 0.0\nsamples = 3\nvalue = [3, 0]\nclass = y[0]"] ;
779 -> 781 ;
782 [label="X[23] <= 0.474\ngini = 0.19\nsamples = 301\nvalue = [32, 269]\nclass = y[1]"] ;
754 -> 782 ;
783 [label="X[26] <= 1.692\ngini = 0.469\nsamples = 16\nvalue = [6, 10]\nclass = y[1]"] ;
782 -> 783 ;
784 [label="X[24] <= 1.185\ngini = 0.355\nsamples = 13\nvalue = [3, 10]\nclass = y[1]"] ;
783 -> 784 ;
785 [label="X[21] <= 0.066\ngini = 0.18\nsamples = 10\nvalue = [1, 9]\nclass = y[1]"] ;
784 -> 785 ;
786 [label="X[0] <= 0.802\ngini = 0.375\nsamples = 4\nvalue = [1, 3]\nclass = y[1]"] ;
785 -> 786 ;
787 [label="gini = 0.0\nsamples = 3\nvalue = [0, 3]\nclass = y[1]"] ;
786 -> 787 ;
788 [label="gini = 0.0\nsamples = 1\nvalue = [1, 0]\nclass = y[0]"] ;
786 -> 788 ;
789 [label="gini = 0.0\nsamples = 6\nvalue = [0, 6]\nclass = y[1]"] ;
785 -> 789 ;
790 [label="X[26] <= 0.871\ngini = 0.444\nsamples = 3\nvalue = [2, 1]\nclass = y[0]"] ;
784 -> 790 ;
791 [label="gini = 0.0\nsamples = 2\nvalue = [2, 0]\nclass = y[0]"] ;
790 -> 791 ;
792 [label="gini = 0.0\nsamples = 1\nvalue = [0, 1]\nclass = y[1]"] ;
790 -> 792 ;
793 [label="gini = 0.0\nsamples = 3\nvalue = [3, 0]\nclass = y[0]"] ;
783 -> 793 ;
794 [label="X[18] <= -0.09\ngini = 0.166\nsamples = 285\nvalue = [26, 259]\nclass = y[1]"] ;
782 -> 794 ;
795 [label="X[20] <= 0.201\ngini = 0.059\nsamples = 131\nvalue = [4, 127]\nclass = y[1]"] ;
794 -> 795 ;
796 [label="gini = 0.0\nsamples = 73\nvalue = [0, 73]\nclass = y[1]"] ;
795 -> 796 ;
797 [label="X[0] <= 0.348\ngini = 0.128\nsamples = 58\nvalue = [4, 54]\nclass = y[1]"] ;
795 -> 797 ;
798 [label="X[5] <= 0.5\ngini = 0.48\nsamples = 5\nvalue = [2, 3]\nclass = y[1]"] ;
797 -> 798 ;
799 [label="gini = 0.0\nsamples = 3\nvalue = [0, 3]\nclass = y[1]"] ;
798 -> 799 ;
800 [label="gini = 0.0\nsamples = 2\nvalue = [2, 0]\nclass = y[0]"] ;
798 -> 800 ;
801 [label="X[17] <= 0.5\ngini = 0.073\nsamples = 53\nvalue = [2, 51]\nclass = y[1]"] ;
797 -> 801 ;
802 [label="gini = 0.0\nsamples = 30\nvalue = [0, 30]\nclass = y[1]"] ;
801 -> 802 ;
803 [label="X[2] <= 0.5\ngini = 0.159\nsamples = 23\nvalue = [2, 21]\nclass = y[1]"] ;
801 -> 803 ;
804 [label="gini = 0.0\nsamples = 12\nvalue = [0, 12]\nclass = y[1]"] ;
803 -> 804 ;
805 [label="X[0] <= 1.264\ngini = 0.298\nsamples = 11\nvalue = [2, 9]\nclass = y[1]"] ;
803 -> 805 ;
806 [label="gini = 0.0\nsamples = 5\nvalue = [0, 5]\nclass = y[1]"] ;
805 -> 806 ;
807 [label="X[0] <= 1.429\ngini = 0.444\nsamples = 6\nvalue = [2, 4]\nclass = y[1]"] ;
805 -> 807 ;
808 [label="gini = 0.0\nsamples = 2\nvalue = [2, 0]\nclass = y[0]"] ;
807 -> 808 ;
809 [label="gini = 0.0\nsamples = 4\nvalue = [0, 4]\nclass = y[1]"] ;
807 -> 809 ;
810 [label="X[24] <= 4.362\ngini = 0.245\nsamples = 154\nvalue = [22, 132]\nclass = y[1]"] ;
794 -> 810 ;
811 [label="X[26] <= 2.513\ngini = 0.223\nsamples = 149\nvalue = [19, 130]\nclass = y[1]"] ;
810 -> 811 ;
812 [label="X[21] <= 0.898\ngini = 0.2\nsamples = 142\nvalue = [16, 126]\nclass = y[1]"] ;
811 -> 812 ;
813 [label="X[17] <= 0.5\ngini = 0.238\nsamples = 116\nvalue = [16, 100]\nclass = y[1]"] ;
812 -> 813 ;
814 [label="X[0] <= 0.873\ngini = 0.176\nsamples = 72\nvalue = [7, 65]\nclass = y[1]"] ;
813 -> 814 ;
815 [label="X[0] <= 0.839\ngini = 0.32\nsamples = 25\nvalue = [5, 20]\nclass = y[1]"] ;
814 -> 815 ;
816 [label="X[25] <= 1.748\ngini = 0.227\nsamples = 23\nvalue = [3, 20]\nclass = y[1]"] ;
815 -> 816 ;
817 [label="X[21] <= -0.766\ngini = 0.095\nsamples = 20\nvalue = [1, 19]\nclass = y[1]"] ;
816 -> 817 ;
818 [label="X[10] <= 0.5\ngini = 0.32\nsamples = 5\nvalue = [1, 4]\nclass = y[1]"] ;
817 -> 818 ;
819 [label="gini = 0.0\nsamples = 3\nvalue = [0, 3]\nclass = y[1]"] ;
818 -> 819 ;
820 [label="X[0] <= 0.251\ngini = 0.5\nsamples = 2\nvalue = [1, 1]\nclass = y[0]"] ;
818 -> 820 ;
821 [label="gini = 0.0\nsamples = 1\nvalue = [0, 1]\nclass = y[1]"] ;
820 -> 821 ;
822 [label="gini = 0.0\nsamples = 1\nvalue = [1, 0]\nclass = y[0]"] ;
820 -> 822 ;
823 [label="gini = 0.0\nsamples = 15\nvalue = [0, 15]\nclass = y[1]"] ;
817 -> 823 ;
824 [label="X[0] <= 0.15\ngini = 0.444\nsamples = 3\nvalue = [2, 1]\nclass = y[0]"] ;
816 -> 824 ;
825 [label="gini = 0.0\nsamples = 1\nvalue = [0, 1]\nclass = y[1]"] ;
824 -> 825 ;
826 [label="gini = 0.0\nsamples = 2\nvalue = [2, 0]\nclass = y[0]"] ;
824 -> 826 ;
827 [label="gini = 0.0\nsamples = 2\nvalue = [2, 0]\nclass = y[0]"] ;
815 -> 827 ;
828 [label="X[0] <= 2.167\ngini = 0.081\nsamples = 47\nvalue = [2, 45]\nclass = y[1]"] ;
814 -> 828 ;
829 [label="X[25] <= 0.125\ngini = 0.045\nsamples = 43\nvalue = [1, 42]\nclass = y[1]"] ;
828 -> 829 ;
830 [label="X[23] <= 1.262\ngini = 0.165\nsamples = 11\nvalue = [1, 10]\nclass = y[1]"] ;
829 -> 830 ;
831 [label="gini = 0.0\nsamples = 9\nvalue = [0, 9]\nclass = y[1]"] ;
830 -> 831 ;
832 [label="X[1] <= 0.5\ngini = 0.5\nsamples = 2\nvalue = [1, 1]\nclass = y[0]"] ;
830 -> 832 ;
833 [label="gini = 0.0\nsamples = 1\nvalue = [0, 1]\nclass = y[1]"] ;
832 -> 833 ;
834 [label="gini = 0.0\nsamples = 1\nvalue = [1, 0]\nclass = y[0]"] ;
832 -> 834 ;
835 [label="gini = 0.0\nsamples = 32\nvalue = [0, 32]\nclass = y[1]"] ;
829 -> 835 ;
836 [label="X[26] <= 0.871\ngini = 0.375\nsamples = 4\nvalue = [1, 3]\nclass = y[1]"] ;
828 -> 836 ;
837 [label="gini = 0.0\nsamples = 1\nvalue = [1, 0]\nclass = y[0]"] ;
836 -> 837 ;
838 [label="gini = 0.0\nsamples = 3\nvalue = [0, 3]\nclass = y[1]"] ;
836 -> 838 ;
839 [label="X[23] <= 1.262\ngini = 0.325\nsamples = 44\nvalue = [9, 35]\nclass = y[1]"] ;
813 -> 839 ;
840 [label="X[0] <= 1.128\ngini = 0.412\nsamples = 31\nvalue = [9, 22]\nclass = y[1]"] ;
839 -> 840 ;
841 [label="X[19] <= 0.361\ngini = 0.219\nsamples = 16\nvalue = [2, 14]\nclass = y[1]"] ;
840 -> 841 ;
842 [label="X[26] <= 1.692\ngini = 0.124\nsamples = 15\nvalue = [1, 14]\nclass = y[1]"] ;
841 -> 842 ;
843 [label="gini = 0.0\nsamples = 11\nvalue = [0, 11]\nclass = y[1]"] ;
842 -> 843 ;
844 [label="X[20] <= 0.201\ngini = 0.375\nsamples = 4\nvalue = [1, 3]\nclass = y[1]"] ;
842 -> 844 ;
845 [label="gini = 0.0\nsamples = 1\nvalue = [1, 0]\nclass = y[0]"] ;
844 -> 845 ;
846 [label="gini = 0.0\nsamples = 3\nvalue = [0, 3]\nclass = y[1]"] ;
844 -> 846 ;
847 [label="gini = 0.0\nsamples = 1\nvalue = [1, 0]\nclass = y[0]"] ;
841 -> 847 ;
848 [label="X[11] <= 0.5\ngini = 0.498\nsamples = 15\nvalue = [7, 8]\nclass = y[1]"] ;
840 -> 848 ;
849 [label="X[13] <= 0.5\ngini = 0.408\nsamples = 7\nvalue = [5, 2]\nclass = y[0]"] ;
848 -> 849 ;
850 [label="X[21] <= 0.066\ngini = 0.5\nsamples = 4\nvalue = [2, 2]\nclass = y[0]"] ;
849 -> 850 ;
851 [label="gini = 0.0\nsamples = 2\nvalue = [0, 2]\nclass = y[1]"] ;
850 -> 851 ;
852 [label="gini = 0.0\nsamples = 2\nvalue = [2, 0]\nclass = y[0]"] ;
850 -> 852 ;
853 [label="gini = 0.0\nsamples = 3\nvalue = [3, 0]\nclass = y[0]"] ;
849 -> 853 ;
854 [label="X[26] <= 0.871\ngini = 0.375\nsamples = 8\nvalue = [2, 6]\nclass = y[1]"] ;
848 -> 854 ;
855 [label="gini = 0.0\nsamples = 4\nvalue = [0, 4]\nclass = y[1]"] ;
854 -> 855 ;
856 [label="X[13] <= 0.5\ngini = 0.5\nsamples = 4\nvalue = [2, 2]\nclass = y[0]"] ;
854 -> 856 ;
857 [label="X[0] <= 1.44\ngini = 0.444\nsamples = 3\nvalue = [1, 2]\nclass = y[1]"] ;
856 -> 857 ;
858 [label="gini = 0.0\nsamples = 1\nvalue = [1, 0]\nclass = y[0]"] ;
857 -> 858 ;
859 [label="gini = 0.0\nsamples = 2\nvalue = [0, 2]\nclass = y[1]"] ;
857 -> 859 ;
860 [label="gini = 0.0\nsamples = 1\nvalue = [1, 0]\nclass = y[0]"] ;
856 -> 860 ;
861 [label="gini = 0.0\nsamples = 13\nvalue = [0, 13]\nclass = y[1]"] ;
839 -> 861 ;
862 [label="gini = 0.0\nsamples = 26\nvalue = [0, 26]\nclass = y[1]"] ;
812 -> 862 ;
863 [label="X[0] <= 1.563\ngini = 0.49\nsamples = 7\nvalue = [3, 4]\nclass = y[1]"] ;
811 -> 863 ;
864 [label="X[24] <= 1.185\ngini = 0.375\nsamples = 4\nvalue = [3, 1]\nclass = y[0]"] ;
863 -> 864 ;
865 [label="gini = 0.0\nsamples = 1\nvalue = [0, 1]\nclass = y[1]"] ;
864 -> 865 ;
866 [label="gini = 0.0\nsamples = 3\nvalue = [3, 0]\nclass = y[0]"] ;
864 -> 866 ;
867 [label="gini = 0.0\nsamples = 3\nvalue = [0, 3]\nclass = y[1]"] ;
863 -> 867 ;
868 [label="X[20] <= 1.899\ngini = 0.48\nsamples = 5\nvalue = [3, 2]\nclass = y[0]"] ;
810 -> 868 ;
869 [label="X[25] <= 1.748\ngini = 0.444\nsamples = 3\nvalue = [1, 2]\nclass = y[1]"] ;
868 -> 869 ;
870 [label="gini = 0.0\nsamples = 2\nvalue = [0, 2]\nclass = y[1]"] ;
869 -> 870 ;
871 [label="gini = 0.0\nsamples = 1\nvalue = [1, 0]\nclass = y[0]"] ;
869 -> 871 ;
872 [label="gini = 0.0\nsamples = 2\nvalue = [2, 0]\nclass = y[0]"] ;
868 -> 872 ;
873 [label="X[24] <= -0.404\ngini = 0.381\nsamples = 994\nvalue = [255, 739]\nclass = y[1]"] ;
667 -> 873 ;
874 [label="X[7] <= 0.5\ngini = 0.102\nsamples = 37\nvalue = [35, 2]\nclass = y[0]"] ;
873 -> 874 ;
875 [label="gini = 0.0\nsamples = 1\nvalue = [0, 1]\nclass = y[1]"] ;
874 -> 875 ;
876 [label="X[4] <= 0.5\ngini = 0.054\nsamples = 36\nvalue = [35, 1]\nclass = y[0]"] ;
874 -> 876 ;
877 [label="gini = 0.0\nsamples = 29\nvalue = [29, 0]\nclass = y[0]"] ;
876 -> 877 ;
878 [label="X[20] <= 0.201\ngini = 0.245\nsamples = 7\nvalue = [6, 1]\nclass = y[0]"] ;
876 -> 878 ;
879 [label="gini = 0.0\nsamples = 1\nvalue = [0, 1]\nclass = y[1]"] ;
878 -> 879 ;
880 [label="gini = 0.0\nsamples = 6\nvalue = [6, 0]\nclass = y[0]"] ;
878 -> 880 ;
881 [label="X[7] <= 0.5\ngini = 0.354\nsamples = 957\nvalue = [220, 737]\nclass = y[1]"] ;
873 -> 881 ;
882 [label="X[19] <= -0.426\ngini = 0.456\nsamples = 524\nvalue = [184, 340]\nclass = y[1]"] ;
881 -> 882 ;
883 [label="X[20] <= 1.899\ngini = 0.02\nsamples = 201\nvalue = [2, 199]\nclass = y[1]"] ;
882 -> 883 ;
884 [label="gini = 0.0\nsamples = 182\nvalue = [0, 182]\nclass = y[1]"] ;
883 -> 884 ;
885 [label="X[23] <= 0.474\ngini = 0.188\nsamples = 19\nvalue = [2, 17]\nclass = y[1]"] ;
883 -> 885 ;
886 [label="X[2] <= 0.5\ngini = 0.5\nsamples = 4\nvalue = [2, 2]\nclass = y[0]"] ;
885 -> 886 ;
887 [label="gini = 0.0\nsamples = 2\nvalue = [0, 2]\nclass = y[1]"] ;
886 -> 887 ;
888 [label="gini = 0.0\nsamples = 2\nvalue = [2, 0]\nclass = y[0]"] ;
886 -> 888 ;
889 [label="gini = 0.0\nsamples = 15\nvalue = [0, 15]\nclass = y[1]"] ;
885 -> 889 ;
890 [label="X[23] <= 0.999\ngini = 0.492\nsamples = 323\nvalue = [182, 141]\nclass = y[0]"] ;
882 -> 890 ;
891 [label="X[24] <= 0.39\ngini = 0.428\nsamples = 239\nvalue = [165, 74]\nclass = y[0]"] ;
890 -> 891 ;
892 [label="X[4] <= 0.5\ngini = 0.287\nsamples = 98\nvalue = [81, 17]\nclass = y[0]"] ;
891 -> 892 ;
893 [label="X[26] <= -0.772\ngini = 0.172\nsamples = 63\nvalue = [57, 6]\nclass = y[0]"] ;
892 -> 893 ;
894 [label="X[0] <= 0.646\ngini = 0.444\nsamples = 9\nvalue = [6, 3]\nclass = y[0]"] ;
893 -> 894 ;
895 [label="X[0] <= -0.302\ngini = 0.245\nsamples = 7\nvalue = [6, 1]\nclass = y[0]"] ;
894 -> 895 ;
896 [label="X[15] <= 0.5\ngini = 0.5\nsamples = 2\nvalue = [1, 1]\nclass = y[0]"] ;
895 -> 896 ;
897 [label="gini = 0.0\nsamples = 1\nvalue = [1, 0]\nclass = y[0]"] ;
896 -> 897 ;
898 [label="gini = 0.0\nsamples = 1\nvalue = [0, 1]\nclass = y[1]"] ;
896 -> 898 ;
899 [label="gini = 0.0\nsamples = 5\nvalue = [5, 0]\nclass = y[0]"] ;
895 -> 899 ;
900 [label="gini = 0.0\nsamples = 2\nvalue = [0, 2]\nclass = y[1]"] ;
894 -> 900 ;
901 [label="X[23] <= 0.737\ngini = 0.105\nsamples = 54\nvalue = [51, 3]\nclass = y[0]"] ;
893 -> 901 ;
902 [label="X[0] <= 0.129\ngini = 0.042\nsamples = 47\nvalue = [46, 1]\nclass = y[0]"] ;
901 -> 902 ;
903 [label="X[21] <= 0.898\ngini = 0.278\nsamples = 6\nvalue = [5, 1]\nclass = y[0]"] ;
902 -> 903 ;
904 [label="gini = 0.0\nsamples = 5\nvalue = [5, 0]\nclass = y[0]"] ;
903 -> 904 ;
905 [label="gini = 0.0\nsamples = 1\nvalue = [0, 1]\nclass = y[1]"] ;
903 -> 905 ;
906 [label="gini = 0.0\nsamples = 41\nvalue = [41, 0]\nclass = y[0]"] ;
902 -> 906 ;
907 [label="X[2] <= 0.5\ngini = 0.408\nsamples = 7\nvalue = [5, 2]\nclass = y[0]"] ;
901 -> 907 ;
908 [label="gini = 0.0\nsamples = 2\nvalue = [0, 2]\nclass = y[1]"] ;
907 -> 908 ;
909 [label="gini = 0.0\nsamples = 5\nvalue = [5, 0]\nclass = y[0]"] ;
907 -> 909 ;
910 [label="X[26] <= 0.049\ngini = 0.431\nsamples = 35\nvalue = [24, 11]\nclass = y[0]"] ;
892 -> 910 ;
911 [label="X[20] <= 1.899\ngini = 0.18\nsamples = 10\nvalue = [9, 1]\nclass = y[0]"] ;
910 -> 911 ;
912 [label="gini = 0.0\nsamples = 7\nvalue = [7, 0]\nclass = y[0]"] ;
911 -> 912 ;
913 [label="X[15] <= 0.5\ngini = 0.444\nsamples = 3\nvalue = [2, 1]\nclass = y[0]"] ;
911 -> 913 ;
914 [label="gini = 0.0\nsamples = 2\nvalue = [2, 0]\nclass = y[0]"] ;
913 -> 914 ;
915 [label="gini = 0.0\nsamples = 1\nvalue = [0, 1]\nclass = y[1]"] ;
913 -> 915 ;
916 [label="X[14] <= 0.5\ngini = 0.48\nsamples = 25\nvalue = [15, 10]\nclass = y[0]"] ;
910 -> 916 ;
917 [label="X[22] <= 0.554\ngini = 0.375\nsamples = 16\nvalue = [12, 4]\nclass = y[0]"] ;
916 -> 917 ;
918 [label="X[0] <= 0.961\ngini = 0.26\nsamples = 13\nvalue = [11, 2]\nclass = y[0]"] ;
917 -> 918 ;
919 [label="X[0] <= 0.907\ngini = 0.48\nsamples = 5\nvalue = [3, 2]\nclass = y[0]"] ;
918 -> 919 ;
920 [label="X[15] <= 0.5\ngini = 0.375\nsamples = 4\nvalue = [3, 1]\nclass = y[0]"] ;
919 -> 920 ;
921 [label="X[11] <= 0.5\ngini = 0.5\nsamples = 2\nvalue = [1, 1]\nclass = y[0]"] ;
920 -> 921 ;
922 [label="gini = 0.0\nsamples = 1\nvalue = [1, 0]\nclass = y[0]"] ;
921 -> 922 ;
923 [label="gini = 0.0\nsamples = 1\nvalue = [0, 1]\nclass = y[1]"] ;
921 -> 923 ;
924 [label="gini = 0.0\nsamples = 2\nvalue = [2, 0]\nclass = y[0]"] ;
920 -> 924 ;
925 [label="gini = 0.0\nsamples = 1\nvalue = [0, 1]\nclass = y[1]"] ;
919 -> 925 ;
926 [label="gini = 0.0\nsamples = 8\nvalue = [8, 0]\nclass = y[0]"] ;
918 -> 926 ;
927 [label="X[0] <= 1.206\ngini = 0.444\nsamples = 3\nvalue = [1, 2]\nclass = y[1]"] ;
917 -> 927 ;
928 [label="gini = 0.0\nsamples = 1\nvalue = [1, 0]\nclass = y[0]"] ;
927 -> 928 ;
929 [label="gini = 0.0\nsamples = 2\nvalue = [0, 2]\nclass = y[1]"] ;
927 -> 929 ;
930 [label="X[0] <= -0.271\ngini = 0.444\nsamples = 9\nvalue = [3, 6]\nclass = y[1]"] ;
916 -> 930 ;
931 [label="gini = 0.0\nsamples = 1\nvalue = [1, 0]\nclass = y[0]"] ;
930 -> 931 ;
932 [label="X[26] <= 0.871\ngini = 0.375\nsamples = 8\nvalue = [2, 6]\nclass = y[1]"] ;
930 -> 932 ;
933 [label="gini = 0.0\nsamples = 5\nvalue = [0, 5]\nclass = y[1]"] ;
932 -> 933 ;
934 [label="X[0] <= 1.883\ngini = 0.444\nsamples = 3\nvalue = [2, 1]\nclass = y[0]"] ;
932 -> 934 ;
935 [label="gini = 0.0\nsamples = 2\nvalue = [2, 0]\nclass = y[0]"] ;
934 -> 935 ;
936 [label="gini = 0.0\nsamples = 1\nvalue = [0, 1]\nclass = y[1]"] ;
934 -> 936 ;
937 [label="X[0] <= 2.708\ngini = 0.482\nsamples = 141\nvalue = [84, 57]\nclass = y[0]"] ;
891 -> 937 ;
938 [label="X[17] <= 0.5\ngini = 0.47\nsamples = 135\nvalue = [84, 51]\nclass = y[0]"] ;
937 -> 938 ;
939 [label="X[21] <= 0.898\ngini = 0.498\nsamples = 86\nvalue = [46, 40]\nclass = y[0]"] ;
938 -> 939 ;
940 [label="X[23] <= 0.737\ngini = 0.475\nsamples = 67\nvalue = [41, 26]\nclass = y[0]"] ;
939 -> 940 ;
941 [label="X[0] <= 1.934\ngini = 0.375\nsamples = 36\nvalue = [27, 9]\nclass = y[0]"] ;
940 -> 941 ;
942 [label="X[25] <= 0.125\ngini = 0.428\nsamples = 29\nvalue = [20, 9]\nclass = y[0]"] ;
941 -> 942 ;
943 [label="X[26] <= 1.692\ngini = 0.245\nsamples = 14\nvalue = [12, 2]\nclass = y[0]"] ;
942 -> 943 ;
944 [label="X[0] <= 1.405\ngini = 0.142\nsamples = 13\nvalue = [12, 1]\nclass = y[0]"] ;
943 -> 944 ;
945 [label="gini = 0.0\nsamples = 10\nvalue = [10, 0]\nclass = y[0]"] ;
944 -> 945 ;
946 [label="X[0] <= 1.535\ngini = 0.444\nsamples = 3\nvalue = [2, 1]\nclass = y[0]"] ;
944 -> 946 ;
947 [label="gini = 0.0\nsamples = 1\nvalue = [0, 1]\nclass = y[1]"] ;
946 -> 947 ;
948 [label="gini = 0.0\nsamples = 2\nvalue = [2, 0]\nclass = y[0]"] ;
946 -> 948 ;
949 [label="gini = 0.0\nsamples = 1\nvalue = [0, 1]\nclass = y[1]"] ;
943 -> 949 ;
950 [label="X[21] <= 0.066\ngini = 0.498\nsamples = 15\nvalue = [8, 7]\nclass = y[0]"] ;
942 -> 950 ;
951 [label="X[0] <= 0.356\ngini = 0.375\nsamples = 8\nvalue = [6, 2]\nclass = y[0]"] ;
950 -> 951 ;
952 [label="gini = 0.0\nsamples = 1\nvalue = [0, 1]\nclass = y[1]"] ;
951 -> 952 ;
953 [label="X[14] <= 0.5\ngini = 0.245\nsamples = 7\nvalue = [6, 1]\nclass = y[0]"] ;
951 -> 953 ;
954 [label="X[0] <= 1.185\ngini = 0.5\nsamples = 2\nvalue = [1, 1]\nclass = y[0]"] ;
953 -> 954 ;
955 [label="gini = 0.0\nsamples = 1\nvalue = [0, 1]\nclass = y[1]"] ;
954 -> 955 ;
956 [label="gini = 0.0\nsamples = 1\nvalue = [1, 0]\nclass = y[0]"] ;
954 -> 956 ;
957 [label="gini = 0.0\nsamples = 5\nvalue = [5, 0]\nclass = y[0]"] ;
953 -> 957 ;
958 [label="X[22] <= 0.554\ngini = 0.408\nsamples = 7\nvalue = [2, 5]\nclass = y[1]"] ;
950 -> 958 ;
959 [label="X[1] <= 0.5\ngini = 0.278\nsamples = 6\nvalue = [1, 5]\nclass = y[1]"] ;
958 -> 959 ;
960 [label="X[0] <= 1.471\ngini = 0.444\nsamples = 3\nvalue = [1, 2]\nclass = y[1]"] ;
959 -> 960 ;
961 [label="gini = 0.0\nsamples = 1\nvalue = [1, 0]\nclass = y[0]"] ;
960 -> 961 ;
962 [label="gini = 0.0\nsamples = 2\nvalue = [0, 2]\nclass = y[1]"] ;
960 -> 962 ;
963 [label="gini = 0.0\nsamples = 3\nvalue = [0, 3]\nclass = y[1]"] ;
959 -> 963 ;
964 [label="gini = 0.0\nsamples = 1\nvalue = [1, 0]\nclass = y[0]"] ;
958 -> 964 ;
965 [label="gini = 0.0\nsamples = 7\nvalue = [7, 0]\nclass = y[0]"] ;
941 -> 965 ;
966 [label="X[21] <= -0.766\ngini = 0.495\nsamples = 31\nvalue = [14, 17]\nclass = y[1]"] ;
940 -> 966 ;
967 [label="gini = 0.0\nsamples = 6\nvalue = [0, 6]\nclass = y[1]"] ;
966 -> 967 ;
968 [label="X[25] <= 1.748\ngini = 0.493\nsamples = 25\nvalue = [14, 11]\nclass = y[0]"] ;
966 -> 968 ;
969 [label="X[19] <= 0.361\ngini = 0.495\nsamples = 20\nvalue = [9, 11]\nclass = y[1]"] ;
968 -> 969 ;
970 [label="X[26] <= 1.692\ngini = 0.492\nsamples = 16\nvalue = [9, 7]\nclass = y[0]"] ;
969 -> 970 ;
971 [label="X[0] <= 1.392\ngini = 0.459\nsamples = 14\nvalue = [9, 5]\nclass = y[0]"] ;
970 -> 971 ;
972 [label="X[14] <= 0.5\ngini = 0.5\nsamples = 10\nvalue = [5, 5]\nclass = y[0]"] ;
971 -> 972 ;
973 [label="X[26] <= 0.049\ngini = 0.375\nsamples = 4\nvalue = [3, 1]\nclass = y[0]"] ;
972 -> 973 ;
974 [label="gini = 0.0\nsamples = 1\nvalue = [0, 1]\nclass = y[1]"] ;
973 -> 974 ;
975 [label="gini = 0.0\nsamples = 3\nvalue = [3, 0]\nclass = y[0]"] ;
973 -> 975 ;
976 [label="X[2] <= 0.5\ngini = 0.444\nsamples = 6\nvalue = [2, 4]\nclass = y[1]"] ;
972 -> 976 ;
977 [label="gini = 0.0\nsamples = 4\nvalue = [0, 4]\nclass = y[1]"] ;
976 -> 977 ;
978 [label="gini = 0.0\nsamples = 2\nvalue = [2, 0]\nclass = y[0]"] ;
976 -> 978 ;
979 [label="gini = 0.0\nsamples = 4\nvalue = [4, 0]\nclass = y[0]"] ;
971 -> 979 ;
980 [label="gini = 0.0\nsamples = 2\nvalue = [0, 2]\nclass = y[1]"] ;
970 -> 980 ;
981 [label="gini = 0.0\nsamples = 4\nvalue = [0, 4]\nclass = y[1]"] ;
969 -> 981 ;
982 [label="gini = 0.0\nsamples = 5\nvalue = [5, 0]\nclass = y[0]"] ;
968 -> 982 ;
983 [label="X[0] <= 1.173\ngini = 0.388\nsamples = 19\nvalue = [5, 14]\nclass = y[1]"] ;
939 -> 983 ;
984 [label="gini = 0.0\nsamples = 7\nvalue = [0, 7]\nclass = y[1]"] ;
983 -> 984 ;
985 [label="X[0] <= 1.405\ngini = 0.486\nsamples = 12\nvalue = [5, 7]\nclass = y[1]"] ;
983 -> 985 ;
986 [label="gini = 0.0\nsamples = 2\nvalue = [2, 0]\nclass = y[0]"] ;
985 -> 986 ;
987 [label="X[21] <= 1.731\ngini = 0.42\nsamples = 10\nvalue = [3, 7]\nclass = y[1]"] ;
985 -> 987 ;
988 [label="X[26] <= 0.049\ngini = 0.245\nsamples = 7\nvalue = [1, 6]\nclass = y[1]"] ;
987 -> 988 ;
989 [label="X[5] <= 0.5\ngini = 0.444\nsamples = 3\nvalue = [1, 2]\nclass = y[1]"] ;
988 -> 989 ;
990 [label="gini = 0.0\nsamples = 2\nvalue = [0, 2]\nclass = y[1]"] ;
989 -> 990 ;
991 [label="gini = 0.0\nsamples = 1\nvalue = [1, 0]\nclass = y[0]"] ;
989 -> 991 ;
992 [label="gini = 0.0\nsamples = 4\nvalue = [0, 4]\nclass = y[1]"] ;
988 -> 992 ;
993 [label="X[2] <= 0.5\ngini = 0.444\nsamples = 3\nvalue = [2, 1]\nclass = y[0]"] ;
987 -> 993 ;
994 [label="gini = 0.0\nsamples = 1\nvalue = [0, 1]\nclass = y[1]"] ;
993 -> 994 ;
995 [label="gini = 0.0\nsamples = 2\nvalue = [2, 0]\nclass = y[0]"] ;
993 -> 995 ;
996 [label="X[26] <= 0.049\ngini = 0.348\nsamples = 49\nvalue = [38, 11]\nclass = y[0]"] ;
938 -> 996 ;
997 [label="gini = 0.0\nsamples = 11\nvalue = [11, 0]\nclass = y[0]"] ;
996 -> 997 ;
998 [label="X[0] <= 0.315\ngini = 0.411\nsamples = 38\nvalue = [27, 11]\nclass = y[0]"] ;
996 -> 998 ;
999 [label="gini = 0.0\nsamples = 2\nvalue = [0, 2]\nclass = y[1]"] ;
998 -> 999 ;
1000 [label="X[21] <= -0.766\ngini = 0.375\nsamples = 36\nvalue = [27, 9]\nclass = y[0]"] ;
998 -> 1000 ;
1001 [label="X[19] <= 0.361\ngini = 0.142\nsamples = 13\nvalue = [12, 1]\nclass = y[0]"] ;
1000 -> 1001 ;
1002 [label="gini = 0.0\nsamples = 11\nvalue = [11, 0]\nclass = y[0]"] ;
1001 -> 1002 ;
1003 [label="X[25] <= 1.748\ngini = 0.5\nsamples = 2\nvalue = [1, 1]\nclass = y[0]"] ;
1001 -> 1003 ;
1004 [label="gini = 0.0\nsamples = 1\nvalue = [1, 0]\nclass = y[0]"] ;
1003 -> 1004 ;
1005 [label="gini = 0.0\nsamples = 1\nvalue = [0, 1]\nclass = y[1]"] ;
1003 -> 1005 ;
1006 [label="X[0] <= 1.371\ngini = 0.454\nsamples = 23\nvalue = [15, 8]\nclass = y[0]"] ;
1000 -> 1006 ;
1007 [label="X[9] <= 0.5\ngini = 0.305\nsamples = 16\nvalue = [13, 3]\nclass = y[0]"] ;
1006 -> 1007 ;
1008 [label="X[25] <= 0.125\ngini = 0.231\nsamples = 15\nvalue = [13, 2]\nclass = y[0]"] ;
1007 -> 1008 ;
1009 [label="X[20] <= 1.899\ngini = 0.408\nsamples = 7\nvalue = [5, 2]\nclass = y[0]"] ;
1008 -> 1009 ;
1010 [label="X[24] <= 1.185\ngini = 0.444\nsamples = 3\nvalue = [1, 2]\nclass = y[1]"] ;
1009 -> 1010 ;
1011 [label="X[0] <= 0.729\ngini = 0.5\nsamples = 2\nvalue = [1, 1]\nclass = y[0]"] ;
1010 -> 1011 ;
1012 [label="gini = 0.0\nsamples = 1\nvalue = [1, 0]\nclass = y[0]"] ;
1011 -> 1012 ;
1013 [label="gini = 0.0\nsamples = 1\nvalue = [0, 1]\nclass = y[1]"] ;
1011 -> 1013 ;
1014 [label="gini = 0.0\nsamples = 1\nvalue = [0, 1]\nclass = y[1]"] ;
1010 -> 1014 ;
1015 [label="gini = 0.0\nsamples = 4\nvalue = [4, 0]\nclass = y[0]"] ;
1009 -> 1015 ;
1016 [label="gini = 0.0\nsamples = 8\nvalue = [8, 0]\nclass = y[0]"] ;
1008 -> 1016 ;
1017 [label="gini = 0.0\nsamples = 1\nvalue = [0, 1]\nclass = y[1]"] ;
1007 -> 1017 ;
1018 [label="X[0] <= 1.845\ngini = 0.408\nsamples = 7\nvalue = [2, 5]\nclass = y[1]"] ;
1006 -> 1018 ;
1019 [label="gini = 0.0\nsamples = 5\nvalue = [0, 5]\nclass = y[1]"] ;
1018 -> 1019 ;
1020 [label="gini = 0.0\nsamples = 2\nvalue = [2, 0]\nclass = y[0]"] ;
1018 -> 1020 ;
1021 [label="gini = 0.0\nsamples = 6\nvalue = [0, 6]\nclass = y[1]"] ;
937 -> 1021 ;
1022 [label="X[0] <= 2.035\ngini = 0.323\nsamples = 84\nvalue = [17, 67]\nclass = y[1]"] ;
890 -> 1022 ;
1023 [label="X[27] <= 0.587\ngini = 0.228\nsamples = 61\nvalue = [8, 53]\nclass = y[1]"] ;
1022 -> 1023 ;
1024 [label="X[24] <= 2.773\ngini = 0.1\nsamples = 38\nvalue = [2, 36]\nclass = y[1]"] ;
1023 -> 1024 ;
1025 [label="X[0] <= 1.869\ngini = 0.057\nsamples = 34\nvalue = [1, 33]\nclass = y[1]"] ;
1024 -> 1025 ;
1026 [label="gini = 0.0\nsamples = 30\nvalue = [0, 30]\nclass = y[1]"] ;
1025 -> 1026 ;
1027 [label="X[26] <= 1.692\ngini = 0.375\nsamples = 4\nvalue = [1, 3]\nclass = y[1]"] ;
1025 -> 1027 ;
1028 [label="gini = 0.0\nsamples = 3\nvalue = [0, 3]\nclass = y[1]"] ;
1027 -> 1028 ;
1029 [label="gini = 0.0\nsamples = 1\nvalue = [1, 0]\nclass = y[0]"] ;
1027 -> 1029 ;
1030 [label="X[23] <= 1.262\ngini = 0.375\nsamples = 4\nvalue = [1, 3]\nclass = y[1]"] ;
1024 -> 1030 ;
1031 [label="gini = 0.0\nsamples = 1\nvalue = [1, 0]\nclass = y[0]"] ;
1030 -> 1031 ;
1032 [label="gini = 0.0\nsamples = 3\nvalue = [0, 3]\nclass = y[1]"] ;
1030 -> 1032 ;
1033 [label="X[13] <= 0.5\ngini = 0.386\nsamples = 23\nvalue = [6, 17]\nclass = y[1]"] ;
1023 -> 1033 ;
1034 [label="X[0] <= 1.676\ngini = 0.486\nsamples = 12\nvalue = [5, 7]\nclass = y[1]"] ;
1033 -> 1034 ;
1035 [label="X[10] <= 0.5\ngini = 0.5\nsamples = 10\nvalue = [5, 5]\nclass = y[0]"] ;
1034 -> 1035 ;
1036 [label="X[20] <= 0.201\ngini = 0.375\nsamples = 4\nvalue = [1, 3]\nclass = y[1]"] ;
1035 -> 1036 ;
1037 [label="gini = 0.0\nsamples = 1\nvalue = [1, 0]\nclass = y[0]"] ;
1036 -> 1037 ;
1038 [label="gini = 0.0\nsamples = 3\nvalue = [0, 3]\nclass = y[1]"] ;
1036 -> 1038 ;
1039 [label="X[20] <= 1.899\ngini = 0.444\nsamples = 6\nvalue = [4, 2]\nclass = y[0]"] ;
1035 -> 1039 ;
1040 [label="gini = 0.0\nsamples = 3\nvalue = [3, 0]\nclass = y[0]"] ;
1039 -> 1040 ;
1041 [label="X[0] <= 1.318\ngini = 0.444\nsamples = 3\nvalue = [1, 2]\nclass = y[1]"] ;
1039 -> 1041 ;
1042 [label="gini = 0.0\nsamples = 2\nvalue = [0, 2]\nclass = y[1]"] ;
1041 -> 1042 ;
1043 [label="gini = 0.0\nsamples = 1\nvalue = [1, 0]\nclass = y[0]"] ;
1041 -> 1043 ;
1044 [label="gini = 0.0\nsamples = 2\nvalue = [0, 2]\nclass = y[1]"] ;
1034 -> 1044 ;
1045 [label="X[0] <= 1.069\ngini = 0.165\nsamples = 11\nvalue = [1, 10]\nclass = y[1]"] ;
1033 -> 1045 ;
1046 [label="X[0] <= 0.95\ngini = 0.32\nsamples = 5\nvalue = [1, 4]\nclass = y[1]"] ;
1045 -> 1046 ;
1047 [label="gini = 0.0\nsamples = 4\nvalue = [0, 4]\nclass = y[1]"] ;
1046 -> 1047 ;
1048 [label="gini = 0.0\nsamples = 1\nvalue = [1, 0]\nclass = y[0]"] ;
1046 -> 1048 ;
1049 [label="gini = 0.0\nsamples = 6\nvalue = [0, 6]\nclass = y[1]"] ;
1045 -> 1049 ;
1050 [label="X[10] <= 0.5\ngini = 0.476\nsamples = 23\nvalue = [9, 14]\nclass = y[1]"] ;
1022 -> 1050 ;
1051 [label="X[23] <= 1.262\ngini = 0.498\nsamples = 17\nvalue = [9, 8]\nclass = y[0]"] ;
1050 -> 1051 ;
1052 [label="X[21] <= 1.731\ngini = 0.426\nsamples = 13\nvalue = [9, 4]\nclass = y[0]"] ;
1051 -> 1052 ;
1053 [label="X[0] <= 2.237\ngini = 0.375\nsamples = 12\nvalue = [9, 3]\nclass = y[0]"] ;
1052 -> 1053 ;
1054 [label="X[0] <= 2.128\ngini = 0.444\nsamples = 3\nvalue = [1, 2]\nclass = y[1]"] ;
1053 -> 1054 ;
1055 [label="gini = 0.0\nsamples = 1\nvalue = [1, 0]\nclass = y[0]"] ;
1054 -> 1055 ;
1056 [label="gini = 0.0\nsamples = 2\nvalue = [0, 2]\nclass = y[1]"] ;
1054 -> 1056 ;
1057 [label="X[0] <= 2.799\ngini = 0.198\nsamples = 9\nvalue = [8, 1]\nclass = y[0]"] ;
1053 -> 1057 ;
1058 [label="gini = 0.0\nsamples = 5\nvalue = [5, 0]\nclass = y[0]"] ;
1057 -> 1058 ;
1059 [label="X[0] <= 2.839\ngini = 0.375\nsamples = 4\nvalue = [3, 1]\nclass = y[0]"] ;
1057 -> 1059 ;
1060 [label="gini = 0.0\nsamples = 1\nvalue = [0, 1]\nclass = y[1]"] ;
1059 -> 1060 ;
1061 [label="gini = 0.0\nsamples = 3\nvalue = [3, 0]\nclass = y[0]"] ;
1059 -> 1061 ;
1062 [label="gini = 0.0\nsamples = 1\nvalue = [0, 1]\nclass = y[1]"] ;
1052 -> 1062 ;
1063 [label="gini = 0.0\nsamples = 4\nvalue = [0, 4]\nclass = y[1]"] ;
1051 -> 1063 ;
1064 [label="gini = 0.0\nsamples = 6\nvalue = [0, 6]\nclass = y[1]"] ;
1050 -> 1064 ;
1065 [label="X[19] <= 0.361\ngini = 0.152\nsamples = 433\nvalue = [36, 397]\nclass = y[1]"] ;
881 -> 1065 ;
1066 [label="X[25] <= 0.125\ngini = 0.062\nsamples = 282\nvalue = [9, 273]\nclass = y[1]"] ;
1065 -> 1066 ;
1067 [label="X[0] <= -0.254\ngini = 0.191\nsamples = 56\nvalue = [6, 50]\nclass = y[1]"] ;
1066 -> 1067 ;
1068 [label="gini = 0.0\nsamples = 1\nvalue = [1, 0]\nclass = y[0]"] ;
1067 -> 1068 ;
1069 [label="X[0] <= 1.024\ngini = 0.165\nsamples = 55\nvalue = [5, 50]\nclass = y[1]"] ;
1067 -> 1069 ;
1070 [label="X[5] <= 0.5\ngini = 0.293\nsamples = 28\nvalue = [5, 23]\nclass = y[1]"] ;
1069 -> 1070 ;
1071 [label="X[0] <= 0.956\ngini = 0.105\nsamples = 18\nvalue = [1, 17]\nclass = y[1]"] ;
1070 -> 1071 ;
1072 [label="gini = 0.0\nsamples = 17\nvalue = [0, 17]\nclass = y[1]"] ;
1071 -> 1072 ;
1073 [label="gini = 0.0\nsamples = 1\nvalue = [1, 0]\nclass = y[0]"] ;
1071 -> 1073 ;
1074 [label="X[16] <= 0.5\ngini = 0.48\nsamples = 10\nvalue = [4, 6]\nclass = y[1]"] ;
1070 -> 1074 ;
1075 [label="X[23] <= 0.868\ngini = 0.444\nsamples = 6\nvalue = [4, 2]\nclass = y[0]"] ;
1074 -> 1075 ;
